{"learner":{"attributes":{"best_iteration":"273","best_ntree_limit":"274","best_score":"0.086857","scikit_learn":"{\"use_label_encoder\": true, \"objective\": \"binary:logistic\", \"max_depth\": 5, \"learning_rate\": 0.05, \"verbosity\": null, \"booster\": null, \"tree_method\": null, \"gamma\": null, \"min_child_weight\": null, \"max_delta_step\": null, \"subsample\": 0.8, \"colsample_bytree\": 0.8, \"colsample_bylevel\": 0.8, \"colsample_bynode\": null, \"reg_alpha\": null, \"reg_lambda\": null, \"scale_pos_weight\": 2, \"base_score\": null, \"missing\": NaN, \"num_parallel_tree\": null, \"random_state\": null, \"n_jobs\": null, \"monotone_constraints\": null, \"interaction_constraints\": null, \"importance_type\": null, \"gpu_id\": null, \"validate_parameters\": null, \"predictor\": null, \"enable_categorical\": false, \"kwargs\": {\"lambda\": 5}, \"classes_\": [0, 1], \"n_classes_\": 2, \"_le\": {\"classes_\": [0, 1]}, \"evals_result_\": {\"validation_0\": {\"logloss\": [0.655812, 0.619699, 0.585024, 0.554378, 0.527136, 0.501134, 0.476696, 0.454914, 0.434081, 0.415831, 0.398538, 0.381964, 0.36598, 0.351077, 0.337144, 0.324614, 0.311608, 0.300729, 0.290098, 0.280582, 0.270825, 0.261678, 0.253086, 0.245436, 0.237748, 0.230248, 0.223551, 0.217085, 0.210641, 0.204658, 0.199278, 0.194264, 0.189408, 0.184823, 0.180301, 0.1761, 0.172218, 0.168534, 0.164934, 0.161557, 0.158544, 0.155818, 0.15309, 0.150128, 0.147656, 0.145055, 0.143063, 0.140528, 0.138414, 0.135962, 0.134126, 0.132161, 0.130499, 0.128477, 0.126672, 0.125114, 0.123494, 0.122239, 0.121032, 0.119653, 0.118676, 0.117791, 0.116549, 0.115618, 0.114615, 0.113323, 0.112166, 0.111262, 0.110717, 0.109769, 0.1091, 0.10825, 0.107519, 0.106795, 0.105867, 0.105042, 0.104406, 0.10381, 0.103335, 0.102778, 0.102102, 0.101505, 0.10088, 0.100367, 0.09992, 0.099494, 0.099047, 0.098539, 0.098217, 0.097813, 0.097308, 0.097182, 0.096843, 0.09658, 0.096255, 0.095937, 0.09583, 0.095647, 0.095314, 0.095167, 0.094977, 0.094739, 0.094523, 0.094372, 0.094283, 0.094155, 0.094091, 0.093993, 0.093712, 0.093562, 0.093332, 0.093184, 0.093081, 0.092957, 0.092893, 0.092878, 0.092732, 0.092634, 0.09251, 0.092595, 0.09245, 0.092255, 0.092237, 0.092176, 0.092041, 0.091968, 0.09179, 0.091612, 0.09153, 0.091406, 0.091436, 0.091278, 0.091214, 0.091017, 0.090982, 0.090998, 0.09084, 0.090791, 0.090827, 0.090739, 0.090673, 0.090564, 0.090494, 0.090447, 0.090318, 0.090251, 0.090202, 0.090146, 0.090025, 0.089805, 0.089874, 0.089864, 0.089835, 0.089884, 0.090022, 0.090009, 0.089862, 0.08981, 0.08971, 0.089707, 0.089711, 0.089634, 0.089675, 0.089593, 0.089591, 0.08955, 0.089597, 0.089528, 0.089497, 0.089448, 0.089343, 0.089305, 0.08931, 0.089225, 0.089083, 0.089118, 0.089241, 0.089263, 0.08916, 0.089162, 0.089105, 0.089099, 0.089162, 0.089288, 0.089104, 0.089188, 0.089314, 0.089269, 0.089414, 0.089397, 0.08926, 0.089379, 0.08938, 0.089142, 0.089192, 0.089292, 0.089252, 0.089109, 0.089028, 0.088979, 0.089046, 0.088996, 0.088924, 0.088802, 0.088725, 0.08868, 0.088562, 0.088589, 0.088501, 0.088564, 0.088456, 0.088273, 0.088296, 0.088216, 0.088158, 0.087899, 0.087997, 0.088078, 0.088141, 0.088183, 0.088093, 0.088076, 0.087987, 0.087929, 0.087838, 0.087751, 0.087791, 0.087818, 0.087778, 0.087826, 0.0878, 0.087719, 0.087681, 0.087714, 0.087749, 0.087757, 0.087772, 0.08764, 0.087505, 0.087438, 0.087391, 0.087441, 0.087404, 0.087374, 0.087499, 0.087329, 0.087329, 0.087309, 0.087344, 0.087533, 0.087477, 0.087482, 0.087521, 0.087517, 0.087646, 0.08758, 0.0875, 0.087576, 0.087417, 0.087389, 0.08735, 0.087358, 0.087304, 0.087209, 0.087145, 0.087144, 0.087138, 0.087142, 0.087112, 0.087075, 0.087019, 0.086921, 0.086942, 0.086857, 0.086981, 0.086935, 0.086973, 0.087023, 0.086966, 0.087025, 0.087131, 0.087045, 0.087016, 0.087165, 0.087159, 0.087126, 0.087062, 0.087019, 0.086979, 0.087029, 0.087123, 0.087124, 0.087169, 0.087135, 0.087103, 0.087103, 0.087125, 0.087144, 0.087133, 0.087077, 0.087047, 0.087007, 0.087145, 0.087239, 0.087283, 0.08723, 0.087276, 0.087296, 0.087196, 0.0871, 0.087153, 0.087151, 0.087218, 0.087172, 0.087205, 0.08733, 0.087239, 0.087321, 0.087415, 0.087361, 0.087418, 0.087409, 0.087439, 0.0875]}}, \"_estimator_type\": \"classifier\"}"},"feature_names":["jaro_winkler_name_local","jaro_winkler_name_local_transliterated","jw_name_local_nonascii_only","levenshtein_street_stop_phonetic","same_phone","tokenset_name_legal","tokenset_name_local_ascii_only","tokenset_name_local_nonascii_only","tokenset_name_local_transliterated","tokenset_name_stop","tokenset_street_number","tokenset_street_stop","wratio_name","wratio_street","wratio_street_number"],"feature_types":["float","float","float","float","int","float","float","float","float","float","float","float","float","float","float"],"gradient_booster":{"model":{"gbtree_model_param":{"num_trees":"324","size_leaf_vector":"0"},"tree_info":[0,0,0,0,0,0,0,0,0,0,0,0,0,0,0,0,0,0,0,0,0,0,0,0,0,0,0,0,0,0,0,0,0,0,0,0,0,0,0,0,0,0,0,0,0,0,0,0,0,0,0,0,0,0,0,0,0,0,0,0,0,0,0,0,0,0,0,0,0,0,0,0,0,0,0,0,0,0,0,0,0,0,0,0,0,0,0,0,0,0,0,0,0,0,0,0,0,0,0,0,0,0,0,0,0,0,0,0,0,0,0,0,0,0,0,0,0,0,0,0,0,0,0,0,0,0,0,0,0,0,0,0,0,0,0,0,0,0,0,0,0,0,0,0,0,0,0,0,0,0,0,0,0,0,0,0,0,0,0,0,0,0,0,0,0,0,0,0,0,0,0,0,0,0,0,0,0,0,0,0,0,0,0,0,0,0,0,0,0,0,0,0,0,0,0,0,0,0,0,0,0,0,0,0,0,0,0,0,0,0,0,0,0,0,0,0,0,0,0,0,0,0,0,0,0,0,0,0,0,0,0,0,0,0,0,0,0,0,0,0,0,0,0,0,0,0,0,0,0,0,0,0,0,0,0,0,0,0,0,0,0,0,0,0,0,0,0,0,0,0,0,0,0,0,0,0,0,0,0,0,0,0,0,0,0,0,0,0,0,0,0,0,0,0,0,0,0,0,0,0,0,0,0,0,0,0,0,0,0,0,0,0,0,0,0,0,0,0,0,0,0,0,0,0],"trees":[{"base_weights":[1.3592203E0,8.0086446E-1,1.9261616E0,-2.3397224E-1,1.6884307E0,1.3333334E-1,1.9310344E0,4.8302618E-1,-1.6972111E0,1.0556622E0,1.9261044E0,-3.3333334E-1,4.6153846E-1,1.1780822E0,1.9547571E0,-5.13834E-1,1.3908256E0,-1.7403651E0,2.0689656E-1,1.797015E0,-2.524272E-1,-2.4390244E-1,1.456E0,-8.8235295E-1,8.4745765E-1,1.5658915E0,-1.0204082E0,-1.768116E0,-1.3333334E-1,-8E-2,3.3333334E-1,-0E0,1.8187311E0,-1.0656934E0,1.0561798E0,3.2258064E-1,-6.666667E-1,7.4074075E-2,1.5254238E0],"categories":[],"categories_nodes":[],"categories_segments":[],"categories_sizes":[],"default_left":[true,true,false,true,true,true,false,true,true,true,false,false,false,true,false,true,true,true,true,false,true,true,false,false,false,false,false,false,false,false,false,false,false,false,false,false,false,false,false],"id":0,"left_children":[1,3,5,7,9,11,13,15,17,19,-1,-1,-1,21,-1,23,25,27,29,31,33,35,37,-1,-1,-1,-1,-1,-1,-1,-1,-1,-1,-1,-1,-1,-1,-1,-1],"loss_changes":[4.9568872E2,7.4571936E2,5.574707E0,4.009362E2,5.5479736E1,1.9179488E0,2.4716797E0,2.368239E2,1.2112671E1,1.2857875E2,0E0,0E0,0E0,1.6200222E1,0E0,6.7199E1,6.550372E1,4.3177795E0,3.963219E-1,3.26828E0,6.043648E1,3.5300288E0,2.4331055E0,0E0,0E0,0E0,0E0,0E0,0E0,0E0,0E0,0E0,0E0,0E0,0E0,0E0,0E0,0E0,0E0],"parents":[2147483647,0,0,1,1,2,2,3,3,4,4,5,5,6,6,7,7,8,8,9,9,13,13,15,15,16,16,17,17,18,18,19,19,20,20,21,21,22,22],"right_children":[2,4,6,8,10,12,14,16,18,20,-1,-1,-1,22,-1,24,26,28,30,32,34,36,38,-1,-1,-1,-1,-1,-1,-1,-1,-1,-1,-1,-1,-1,-1,-1,-1],"split_conditions":[5E-1,7.434025E-1,1.3882352E-1,1.574074E-1,8.59127E-1,7.984848E-1,4.051282E-1,6.547643E-1,9.776119E-1,2.0601852E-1,9.630522E-2,-1.6666668E-2,2.3076924E-2,6.7123437E-1,9.7737856E-2,6.343808E-1,1.6740577E-1,3.167702E-1,5.793651E-1,2.761905E-1,8.22963E-1,3.4057972E-1,3.8181818E-1,-4.411765E-2,4.2372882E-2,7.8294575E-2,-5.102041E-2,-8.84058E-2,-6.6666673E-3,-4E-3,1.6666668E-2,-0E0,9.093656E-2,-5.328467E-2,5.280899E-2,1.6129032E-2,-3.3333335E-2,3.7037039E-3,7.627119E-2],"split_indices":[4,1,10,2,8,8,11,1,8,2,0,0,0,1,0,8,5,6,10,10,0,10,10,0,0,0,0,0,0,0,0,0,0,0,0,0,0,0,0],"split_type":[0,0,0,0,0,0,0,0,0,0,0,0,0,0,0,0,0,0,0,0,0,0,0,0,0,0,0,0,0,0,0,0,0,0,0,0,0,0,0],"sum_hessian":[1.58525E3,8.0475E2,7.805E2,3.7325E2,4.315E2,2.5E0,7.78E2,2.5275E2,1.205E2,1.2525E2,3.0625E2,1E0,1.5E0,3.15E1,7.465E2,1.215E2,1.3125E2,1.1825E2,2.25E0,7.875E1,4.65E1,5.25E0,2.625E1,9.7E1,2.45E1,1.24E2,7.25E0,1.1575E2,2.5E0,1.25E0,1E0,1E0,7.775E1,2.925E1,1.725E1,2.75E0,2.5E0,1.75E0,2.45E1],"tree_param":{"num_deleted":"0","num_feature":"15","num_nodes":"39","size_leaf_vector":"0"}},{"base_weights":[1.2818463E0,-7.192629E-1,1.6181166E0,-1.3513849E0,1.1567774E0,9.635985E-1,1.8850691E0,-1.695655E0,7.170006E-1,7.924996E-3,1.4273868E0,-7.036981E-1,1.4330785E0,-1.7272582E0,-4.1272482E-1,-5.8726126E-1,1.3159535E0,7.420701E-1,-7.126401E-1,-2.6793936E-2,1.5929272E0,-1.4062741E0,1.2936343E0,9.952359E-1,1.7930448E0,-1.7379073E0,-2.1721372E-1,-7.268453E-1,2.1865937E-1,-8.4089655E-1,1.7671902E-1,9.0227133E-1,-9.511658E-2,-9.569096E-1,2.386457E-1,-6.745492E-1,6.38972E-1,-1.7930598E0,8.097177E-1,-8.761903E-2,1.438418E0,1.3467741E-1,1.537941E0,1.507981E-1,1.8032717E0],"categories":[],"categories_nodes":[],"categories_segments":[],"categories_sizes":[],"default_left":[true,true,true,true,true,true,false,false,false,true,false,true,true,true,true,false,false,true,true,true,false,true,false,true,false,false,false,false,false,false,false,false,false,false,false,false,false,false,false,false,false,false,false,false,false],"id":1,"left_children":[1,3,5,7,9,11,-1,13,15,17,19,21,23,25,27,29,-1,31,33,35,-1,37,39,41,43,-1,-1,-1,-1,-1,-1,-1,-1,-1,-1,-1,-1,-1,-1,-1,-1,-1,-1,-1,-1],"loss_changes":[1.0789819E3,2.8400854E2,2.2974951E2,1.3176791E2,1.9029213E1,3.2301837E2,0E0,2.631134E0,2.6284805E1,1.1495137E1,1.2167618E1,1.390484E2,4.129425E1,4.8544312E-1,2.826273E0,3.163127E0,0E0,1.8691492E0,3.6965957E0,6.4644327E0,0E0,6.8032E1,5.970207E0,7.1351685E1,1.4723511E0,0E0,0E0,0E0,0E0,0E0,0E0,0E0,0E0,0E0,0E0,0E0,0E0,0E0,0E0,0E0,0E0,0E0,0E0,0E0,0E0],"parents":[2147483647,0,0,1,1,2,2,3,3,4,4,5,5,7,7,8,8,9,9,10,10,11,11,12,12,13,13,14,14,15,15,17,17,18,18,19,19,21,21,22,22,23,23,24,24],"right_children":[2,4,6,8,10,12,-1,14,16,18,20,22,24,26,28,30,-1,32,34,36,-1,38,40,42,44,-1,-1,-1,-1,-1,-1,-1,-1,-1,-1,-1,-1,-1,-1,-1,-1,-1,-1,-1,-1],"split_conditions":[6.5076417E-1,7.836546E-1,8.570028E-1,5E-1,5.930736E-1,4.1101056E-1,9.425346E-2,9.1757596E-1,4.8076922E-1,2.0601852E-1,4.11442E-1,5E-1,5E-1,7.655678E-1,5.3609306E-1,8.156863E-1,6.579768E-2,8.283632E-1,5.138889E-1,9.119943E-1,7.9646364E-2,8.284129E-1,6.904762E-1,7.803935E-1,2.6785713E-1,-8.689537E-2,-1.0860686E-2,-3.6342267E-2,1.0932969E-2,-4.204483E-2,8.835952E-3,4.5113567E-2,-4.755829E-3,-4.784548E-2,1.19322855E-2,-3.3727463E-2,3.19486E-2,-8.965299E-2,4.0485885E-2,-4.3809516E-3,7.19209E-2,6.7338706E-3,7.689705E-2,7.539905E-3,9.016358E-2],"split_indices":[12,1,12,4,0,9,0,13,3,2,11,4,4,7,12,11,0,1,7,1,0,1,10,1,10,0,0,0,0,0,0,0,0,0,0,0,0,0,0,0,0,0,0,0,0],"split_type":[0,0,0,0,0,0,0,0,0,0,0,0,0,0,0,0,0,0,0,0,0,0,0,0,0,0,0,0,0,0,0,0,0,0,0,0,0,0,0,0,0,0,0,0,0],"sum_hessian":[1.5897993E3,2.2789948E2,1.3618998E3,1.7150877E2,5.639069E1,4.0122308E2,9.6067676E2,1.4780806E2,2.3700727E1,1.1731577E1,4.465911E1,8.7606316E1,3.1361676E2,1.4256448E2,5.243572E0,7.489474E0,1.6211254E1,5.7371154E0,5.9944615E0,4.9926E0,3.966651E1,6.59038E1,2.170251E1,1.4999516E2,1.636216E2,1.4081693E2,1.7475561E0,2.9967098E0,2.2468626E0,5.2448387E0,2.244635E0,4.48934E0,1.2477756E0,4.746186E0,1.2482758E0,2.4970942E0,2.4955056E0,5.692263E1,8.981172E0,2.2463357E0,1.9456177E1,6.0423466E1,8.957169E1,1.4998487E0,1.6212175E2],"tree_param":{"num_deleted":"0","num_feature":"15","num_nodes":"45","size_leaf_vector":"0"}},{"base_weights":[1.2450919E0,-7.2039217E-1,1.6744646E0,-1.2094561E0,1.4478565E0,8.214816E-1,1.7716457E0,-1.687254E0,1.0032502E0,4.3649353E-2,1.6056257E0,9.360836E-2,1.54677E0,6.7329295E-2,1.7739124E0,-1.7311931E0,1.4264551E-1,-8.143937E-1,1.2528719E0,6.185999E-1,-6.1798596E-1,-7.8664285E-1,1.3056567E0,-2.3421498E-1,3.8668042E-1,2.3602583E-1,1.4575384E0,-1.2527266E0,1.1592907E-1,-3.443672E-2,1.4403023E0],"categories":[],"categories_nodes":[],"categories_segments":[],"categories_sizes":[],"default_left":[true,true,true,true,true,true,true,true,false,true,false,true,false,false,false,false,false,false,false,false,false,false,false,false,false,false,false,false,false,false,false],"id":2,"left_children":[1,3,5,7,9,11,13,15,17,19,-1,21,-1,-1,-1,-1,23,-1,25,-1,-1,27,29,-1,-1,-1,-1,-1,-1,-1,-1],"loss_changes":[1.3423347E3,3.1350732E2,1.0057202E2,2.5926056E2,1.187159E1,7.444721E1,3.8984375E0,1.7071045E1,2.5638523E1,5.986378E0,0E0,8.663785E1,0E0,0E0,0E0,0E0,1.3024051E0,0E0,6.972267E0,0E0,0E0,2.0654673E1,6.386204E0,0E0,0E0,0E0,0E0,0E0,0E0,0E0,0E0],"parents":[2147483647,0,0,1,1,2,2,3,3,4,4,5,5,6,6,7,7,8,8,9,9,11,11,16,16,18,18,21,21,22,22],"right_children":[2,4,6,8,10,12,14,16,18,20,-1,22,-1,-1,-1,-1,24,-1,26,-1,-1,28,30,-1,-1,-1,-1,-1,-1,-1,-1],"split_conditions":[4.9018097E-1,8.5480094E-1,7.3508775E-1,5E-1,7.4343145E-1,8.4680575E-1,4.805011E-1,8.2228756E-1,6.9755757E-1,3.9334214E-1,8.028129E-2,5E-1,7.73385E-2,3.3664647E-3,8.869562E-2,-8.655965E-2,9.375E-1,-4.0719684E-2,4.6606335E-1,3.0929996E-2,-3.08993E-2,7.2077924E-1,4.3952966E-1,-1.1710749E-2,1.9334022E-2,1.1801291E-2,7.287692E-2,-6.263633E-2,5.7964534E-3,-1.721836E-3,7.2015114E-2],"split_indices":[9,8,9,4,1,8,1,2,13,0,0,4,0,0,0,0,10,0,3,0,0,3,11,0,0,0,0,0,0,0,0],"split_type":[0,0,0,0,0,0,0,0,0,0,0,0,0,0,0,0,0,0,0,0,0,0,0,0,0,0,0,0,0,0,0],"sum_hessian":[1.5784382E3,2.8238983E2,1.2960483E3,2.3222157E2,5.016825E1,1.3739172E2,1.1586566E3,1.919586E2,4.0262978E1,5.712057E0,4.4456192E1,7.1391304E1,6.600042E1,1.7428797E0,1.1569137E3,1.877208E2,4.237795E0,3.495754E0,3.6767223E1,3.2302458E0,2.4818115E0,4.237287E1,2.9018435E1,1.7446896E0,2.4931054E0,7.9642906E0,2.8802933E1,2.6663969E1,1.5708901E1,2.9891722E0,2.6029263E1],"tree_param":{"num_deleted":"0","num_feature":"15","num_nodes":"31","size_leaf_vector":"0"}},{"base_weights":[1.175769E0,-7.3475635E-1,1.5959867E0,-1.2191129E0,1.1622099E0,4.0781552E-1,1.6116492E0,-1.5914397E0,1.3400865E0,-6.980174E-1,1.3622819E0,-6.390787E-1,1.0159659E0,9.062855E-1,1.6981009E0,-1.6477292E0,2.8435272E-1,-8.975934E-2,1.4120202E0,-9.001293E-2,1.4029477E0,-1.0027004E0,4.2627677E-1,1.00299954E-1,1.0715349E0,3.0480498E-1,1.5208374E0,-1.6563355E0,-5.4894205E-2,-2.5777864E-1,5.475214E-1,1.258792E-1,1.4265275E0,-5.6838155E-1,1.3300035E0,1.0197116E-1,1.5431052E0],"categories":[],"categories_nodes":[],"categories_segments":[],"categories_sizes":[],"default_left":[true,true,false,true,false,true,true,true,false,false,false,true,false,true,false,true,false,false,false,false,false,false,false,false,false,true,false,false,false,false,false,false,false,false,false,false,false],"id":3,"left_children":[1,3,5,7,9,11,13,15,17,-1,19,21,23,25,-1,27,29,-1,-1,-1,31,-1,-1,-1,-1,33,35,-1,-1,-1,-1,-1,-1,-1,-1,-1,-1],"loss_changes":[1.2713743E3,2.7135217E2,2.0788818E1,2.3130646E2,2.7480202E1,1.8224182E1,7.0063965E1,2.3928406E1,3.9378166E0,0E0,3.9874573E0,6.674868E0,3.1803894E-1,5.3108513E1,0E0,2.2763062E0,2.1638267E0,0E0,0E0,0E0,7.7581024E-1,0E0,0E0,0E0,0E0,7.721423E1,1.5169678E0,0E0,0E0,0E0,0E0,0E0,0E0,0E0,0E0,0E0,0E0],"parents":[2147483647,0,0,1,1,2,2,3,3,4,4,5,5,6,6,7,7,8,8,10,10,11,11,12,12,13,13,15,15,16,16,20,20,25,25,26,26],"right_children":[2,4,6,8,10,12,14,16,18,-1,20,22,24,26,-1,28,30,-1,-1,-1,32,-1,-1,-1,-1,34,36,-1,-1,-1,-1,-1,-1,-1,-1,-1,-1],"split_conditions":[4.963768E-1,5E-1,4.3650794E-1,9.006568E-1,6.9755757E-1,7.7350426E-1,7.4754906E-1,8.2228756E-1,4.8866278E-1,-3.490087E-2,5.271429E-1,9.35377E-1,2.25E-1,8.4680575E-1,8.490505E-2,7.704365E-1,7.960688E-1,-4.487967E-3,7.060101E-2,-4.5006466E-3,3.431085E-1,-5.0135024E-2,2.1313839E-2,5.014998E-3,5.3576745E-2,5E-1,5.763637E-1,-8.281677E-2,-2.7447103E-3,-1.2888933E-2,2.737607E-2,6.29396E-3,7.1326375E-2,-2.8419077E-2,6.650018E-2,5.098558E-3,7.715526E-2],"split_indices":[9,4,14,8,13,9,9,2,13,0,14,8,3,8,0,0,11,0,0,0,11,0,0,0,0,4,13,0,0,0,0,0,0,0,0,0,0],"split_type":[0,0,0,0,0,0,0,0,0,0,0,0,0,0,0,0,0,0,0,0,0,0,0,0,0,0,0,0,0,0,0,0,0,0,0,0,0],"sum_hessian":[1.5712996E3,2.8262033E2,1.2886792E3,2.2655914E2,5.606117E1,1.8525206E1,1.270154E3,1.9943497E2,2.7124178E1,4.235573E0,5.1825596E1,6.7136984E0,1.1811506E1,1.449463E2,1.1252076E3,1.9421481E2,5.2201557E0,1.2398716E0,2.5884306E1,1.2463748E0,5.057922E1,5.2245407E0,1.4891576E0,1.4782184E0,1.0333288E1,7.703233E1,6.791398E1,1.9297282E2,1.2419882E0,1.7393912E0,3.4807644E0,1.4915239E0,4.9087696E1,4.2803497E1,3.4228836E1,1.480425E0,6.6433556E1],"tree_param":{"num_deleted":"0","num_feature":"15","num_nodes":"37","size_leaf_vector":"0"}},{"base_weights":[1.1362861E0,-6.4003575E-1,1.435238E0,-1.0622233E0,9.412874E-1,8.6980206E-1,1.6690675E0,-1.4470385E0,1.1163914E0,-1.2028509E-1,1.3768728E0,-5.3224814E-1,1.2703516E0,-1.5357862E0,1.7998631E-1,1.2496684E0,-2.6867697E-1,-6.831998E-1,8.226272E-1,-1.141071E0,1.0798632E0,2.0959488E-1,1.3717172E0,-1.5466667E0,-4.800048E-2,-4.7218978E-1,4.844494E-1,9.5946565E-2,1.3546854E0,-1.0499482E0,4.2276916E-1,-1.543504E0,1.1024383E0,2.0050174E-2,1.1924381E0,-2.8548953E-1,9.3093723E-1,-1.1659107E-1,1.4072771E0],"categories":[],"categories_nodes":[],"categories_segments":[],"categories_sizes":[],"default_left":[true,true,true,true,false,true,false,true,true,true,false,true,false,true,false,true,false,true,false,true,false,true,true,false,false,false,false,false,false,false,false,false,false,false,false,false,false,false,false],"id":4,"left_children":[1,3,5,7,9,11,-1,13,15,17,-1,19,21,23,25,27,-1,29,-1,31,33,35,37,-1,-1,-1,-1,-1,-1,-1,-1,-1,-1,-1,-1,-1,-1,-1,-1],"loss_changes":[8.1718494E2,1.544718E2,1.6611743E2,1.5819508E2,2.3869728E1,2.2468875E2,0E0,2.3670532E1,7.1618004E0,1.2945793E1,0E0,9.556436E1,3.1678192E1,2.006775E0,3.6177797E0,2.7401924E0,0E0,8.177414E0,0E0,7.0399536E1,3.166111E0,1.303027E1,1.5650696E1,0E0,0E0,0E0,0E0,0E0,0E0,0E0,0E0,0E0,0E0,0E0,0E0,0E0,0E0,0E0,0E0],"parents":[2147483647,0,0,1,1,2,2,3,3,4,4,5,5,7,7,8,8,9,9,11,11,12,12,13,13,14,14,15,15,17,17,19,19,20,20,21,21,22,22],"right_children":[2,4,6,8,10,12,-1,14,16,18,-1,20,22,24,26,28,-1,30,-1,32,34,36,38,-1,-1,-1,-1,-1,-1,-1,-1,-1,-1,-1,-1,-1,-1,-1,-1],"split_conditions":[6.5076417E-1,5E-1,8.55522E-1,8.22479E-1,4.6606335E-1,4.037037E-1,8.345338E-2,7.698413E-1,6.308932E-1,8.900256E-1,6.884364E-2,5E-1,5.298246E-1,8.038461E-1,3.8405797E-1,8.592669E-1,-1.34338485E-2,4.5804197E-1,4.113136E-2,9.5272726E-1,6.904762E-1,8.43071E-1,4.8188564E-1,-7.733334E-2,-2.400024E-3,-2.360949E-2,2.4222469E-2,4.7973283E-3,6.773427E-2,-5.2497413E-2,2.1138458E-2,-7.71752E-2,5.5121917E-2,1.0025087E-3,5.9621908E-2,-1.4274477E-2,4.654686E-2,-5.8295536E-3,7.036386E-2],"split_indices":[12,4,12,8,3,9,0,9,5,8,0,4,10,8,11,8,0,7,0,8,10,8,8,0,0,0,0,0,0,0,0,0,0,0,0,0,0,0,0],"split_type":[0,0,0,0,0,0,0,0,0,0,0,0,0,0,0,0,0,0,0,0,0,0,0,0,0,0,0,0,0,0,0,0,0,0,0,0,0,0,0],"sum_hessian":[1.5252045E3,2.1889029E2,1.3063142E3,1.7406035E2,4.4829937E1,3.8907358E2,9.1724066E2,1.4935782E2,2.4702524E1,1.4095887E1,3.073405E1,8.608942E1,3.0298416E2,1.4189824E2,7.4595876E0,2.2980072E1,1.7224524E0,9.68886E0,4.4070272E0,6.3550255E1,2.2539164E1,2.776554E1,2.752186E2,1.4067159E2,1.2266535E0,1.4974667E0,5.962121E0,2.7155097E0,2.0264563E1,7.4662538E0,2.222606E0,5.5207405E1,8.342849E0,2.7298734E0,1.9809292E1,1.8256523E1,9.509016E0,6.156422E0,2.690622E2],"tree_param":{"num_deleted":"0","num_feature":"15","num_nodes":"39","size_leaf_vector":"0"}},{"base_weights":[1.1033082E0,-6.478746E-1,1.492857E0,-1.116672E0,1.1085508E0,8.1451714E-1,1.5854152E0,-1.4783877E0,1.2087166E0,-5.639733E-1,1.25659E0,3.2871395E-1,1.3865381E0,-1.4927006E0,-1.5794526E-1,4.9607884E-2,1.2649112E0,4.2207512E-1,1.4067816E0,-3.7681347E-1,1.2753524E0,1.972035E-2,1.4183984E0,-1.5323408E0,-1.4589828E-1,2.167152E-1,1.3251135E0,-3.0619746E-1,6.339702E-1,-7.8481704E-1,6.6708386E-1,4.499898E-2,1.3476647E0,1.1426994E-1,1.4380428E0],"categories":[],"categories_nodes":[],"categories_segments":[],"categories_sizes":[],"default_left":[true,true,true,true,false,true,false,true,true,false,false,true,false,true,false,false,false,false,false,true,false,false,false,false,false,false,false,false,false,false,false,false,false,false,false],"id":5,"left_children":[1,3,5,7,9,11,-1,13,15,-1,17,19,21,23,-1,-1,25,27,-1,29,31,-1,33,-1,-1,-1,-1,-1,-1,-1,-1,-1,-1,-1,-1],"loss_changes":[1.0464562E3,2.3784712E2,7.206201E1,1.9781866E2,1.8840164E1,4.230413E1,0E0,2.536438E0,1.8343773E0,0E0,4.338997E0,6.472196E1,3.0009918E0,9.233002E0,0E0,0E0,5.361481E-1,3.4452577E0,0E0,2.7032219E1,3.3433228E0,0E0,9.8223877E-1,0E0,0E0,0E0,0E0,0E0,0E0,0E0,0E0,0E0,0E0,0E0,0E0],"parents":[2147483647,0,0,1,1,2,2,3,3,4,4,5,5,7,7,8,8,10,10,11,11,12,12,13,13,16,16,17,17,19,19,20,20,22,22],"right_children":[2,4,6,8,10,12,-1,14,16,-1,18,20,22,24,-1,-1,26,28,-1,30,32,-1,34,-1,-1,-1,-1,-1,-1,-1,-1,-1,-1,-1,-1],"split_conditions":[4.9018097E-1,5E-1,7.7097905E-1,8.066994E-1,6.9755757E-1,5E-1,7.9270765E-2,4.3274856E-1,8.22963E-1,-2.8198665E-2,4.6606335E-1,8.2565653E-1,6.2260103E-1,9.7619045E-1,-7.897263E-3,2.4803942E-3,6.145605E-1,8.775E-1,7.0339076E-2,8.9444447E-1,6.176977E-1,9.860175E-4,4.4949496E-1,-7.661704E-2,-7.294914E-3,1.083576E-2,6.625568E-2,-1.5309873E-2,3.169851E-2,-3.9240852E-2,3.3354193E-2,2.2499491E-3,6.738324E-2,5.7134973E-3,7.190214E-2],"split_indices":[9,4,9,0,13,4,0,6,0,0,3,0,13,14,0,0,14,14,0,14,13,0,14,0,0,0,0,0,0,0,0,0,0,0,0],"split_type":[0,0,0,0,0,0,0,0,0,0,0,0,0,0,0,0,0,0,0,0,0,0,0,0,0,0,0,0,0,0,0,0,0,0,0],"sum_hessian":[1.5219193E3,2.7634018E2,1.2455792E3,2.1955988E2,5.678029E1,1.5543423E2,1.0901449E3,1.915806E2,2.7979279E1,3.4747703E0,5.330552E1,8.830894E1,6.7125305E1,1.8888095E2,2.6996455E0,1.7290303E0,2.6250248E1,1.1036154E1,4.2269367E1,5.2322685E1,3.5986248E1,1.7134272E0,6.541188E1,1.8281148E2,6.0694747E0,2.674953E0,2.3575294E1,1.9858108E0,9.050343E0,3.8511524E1,1.3811163E1,2.447909E0,3.3538338E1,1.4764943E0,6.3935387E1],"tree_param":{"num_deleted":"0","num_feature":"15","num_nodes":"35","size_leaf_vector":"0"}},{"base_weights":[1.0574958E0,-7.20683E-1,1.3159742E0,-1.1587241E0,1.3146515E0,-4.684152E-1,1.4763185E0,-1.2224766E0,5.077952E-1,1.3709809E0,1.289245E-1,-8.1214803E-1,1.1894746E0,9.425873E-1,1.5429616E0,-1.423377E0,2.3359433E-1,-1.4500431E0,1.0778893E0,4.0438542E-1,1.4380193E0,2.1186204E-1,1.5453084E0,-1.4676925E0,1.3565424E-1,-5.14469E-1,9.1735166E-1,-1.5098814E0,4.5053076E-2,-9.012232E-2,1.1514372E0,9.689229E-1,-6.45778E-1,8.864915E-2,1.4589082E0,3.847558E-1,-1.3795671E-1],"categories":[],"categories_nodes":[],"categories_segments":[],"categories_sizes":[],"default_left":[true,true,true,false,true,true,true,true,false,false,false,true,false,true,true,true,false,true,false,true,true,true,false,false,false,false,false,false,false,false,false,false,false,false,false,false,false],"id":6,"left_children":[1,3,5,7,9,11,13,15,-1,-1,-1,17,-1,19,21,23,25,27,29,31,33,35,-1,-1,-1,-1,-1,-1,-1,-1,-1,-1,-1,-1,-1,-1,-1],"loss_changes":[6.9663806E2,1.8082971E2,3.800105E2,2.0371887E1,1.5708199E0,6.883081E1,3.572339E1,4.7884323E1,0E0,0E0,0E0,1.2354765E2,0E0,3.629608E1,1.6953125E0,1.063736E1,1.4355862E1,6.95166E0,2.8460636E0,4.9032127E1,1.4560547E0,7.294036E-1,0E0,0E0,0E0,0E0,0E0,0E0,0E0,0E0,0E0,0E0,0E0,0E0,0E0,0E0,0E0],"parents":[2147483647,0,0,1,1,2,2,3,3,4,4,5,5,6,6,7,7,11,11,13,13,14,14,15,15,16,16,17,17,18,18,19,19,20,20,21,21],"right_children":[2,4,6,8,10,12,14,16,-1,-1,-1,18,-1,20,22,24,26,28,30,32,34,36,-1,-1,-1,-1,-1,-1,-1,-1,-1,-1,-1,-1,-1,-1,-1],"split_conditions":[6.1011904E-1,8.248082E-1,4.4222224E-1,9.3099236E-1,6.015873E-1,8.438889E-1,7.7097905E-1,5E-1,2.538976E-2,6.8549044E-2,6.446225E-3,5E-1,5.947373E-2,8.5867894E-1,4.805011E-1,8.6150753E-1,4.8076922E-1,9.0238094E-1,5.2272725E-1,4.3726853E-1,6.662142E-1,4.6504328E-1,7.726542E-2,-7.338463E-2,6.782712E-3,-2.5723452E-2,4.5867585E-2,-7.549407E-2,2.252654E-3,-4.5061163E-3,5.757186E-2,4.8446145E-2,-3.22889E-2,4.432458E-3,7.294541E-2,1.923779E-2,-6.8978355E-3],"split_indices":[12,8,9,13,12,2,9,4,0,0,0,4,0,8,1,1,3,8,10,2,1,1,0,0,0,0,0,0,0,0,0,0,0,0,0,0,0],"split_type":[0,0,0,0,0,0,0,0,0,0,0,0,0,0,0,0,0,0,0,0,0,0,0,0,0,0,0,0,0,0,0,0,0,0,0,0,0],"sum_hessian":[1.5003624E3,1.8928091E2,1.3110815E3,1.5753087E2,3.175004E1,1.0730724E2,1.2037743E3,1.5300975E2,4.52112E0,2.9564367E1,2.1856728E0,9.0992325E1,1.6314922E1,1.4202704E2,1.0617472E3,1.3455664E2,1.84531E1,6.890171E1,2.2090614E1,7.24278E1,6.9599236E1,2.6718602E0,1.0590753E3,1.3112242E2,3.434228E0,9.403331E0,9.049769E0,6.620264E1,2.6990755E0,1.2418612E0,2.0848755E1,4.73569E1,2.5070902E1,1.4607011E0,6.8138535E1,1.453919E0,1.217941E0],"tree_param":{"num_deleted":"0","num_feature":"15","num_nodes":"37","size_leaf_vector":"0"}},{"base_weights":[1.0281975E0,-5.6436706E-1,1.2979985E0,-9.343248E-1,1.2411234E0,-3.1086782E-1,1.4364226E0,-1.2678068E0,6.4450175E-1,1.3373705E0,3.5918957E-1,-9.656569E-1,1.1249228E0,6.005051E-1,1.4623612E0,-1.3343393E0,3.4636018E-1,-5.796071E-1,8.773665E-1,-3.3778185E-1,7.0510155E-1,-1.3967686E0,8.9436716E-1,-1.0200849E-1,1.1844703E0,-1.419312E-1,1.0785089E0,9.4181E-1,1.5120419E0,-1.3898668E0,-3.0579773E-1,-2.3878431E-1,6.322774E-1,1.0889343E0,1.643225E-1,-1.4450458E0,9.00836E-2,1.0086851E0,1.1866104E-1,8.0302626E-2,1.2215627E0,-6.588246E-1,6.2365836E-1,2.4040245E-1,1.1899832E0,4.1749507E-1,1.4188081E0],"categories":[],"categories_nodes":[],"categories_segments":[],"categories_sizes":[],"default_left":[true,true,true,true,true,true,true,true,false,false,true,true,false,true,true,true,false,false,true,false,false,true,true,false,false,true,false,true,false,false,false,false,false,false,false,false,false,false,false,false,false,false,false,false,false,false,false],"id":7,"left_children":[1,3,5,7,9,11,13,15,17,-1,19,21,23,25,27,29,31,-1,33,-1,-1,35,37,-1,39,41,43,45,-1,-1,-1,-1,-1,-1,-1,-1,-1,-1,-1,-1,-1,-1,-1,-1,-1,-1,-1],"loss_changes":[6.452064E2,1.5260706E2,2.8691724E2,1.0162883E2,9.531555E-1,1.0450339E2,2.1149658E1,1.8918442E1,1.2696893E1,0E0,3.7765532E0,6.643866E1,3.184311E0,1.635728E1,2.233545E1,6.4160767E0,2.4431872E0,0E0,3.920395E0,0E0,0E0,5.1653137E0,9.2436886E-1,0E0,9.052086E-1,1.0612527E1,1.1209946E0,2.5171844E1,0E0,0E0,0E0,0E0,0E0,0E0,0E0,0E0,0E0,0E0,0E0,0E0,0E0,0E0,0E0,0E0,0E0,0E0,0E0],"parents":[2147483647,0,0,1,1,2,2,3,3,4,4,5,5,6,6,7,7,8,8,10,10,11,11,12,12,13,13,14,14,15,15,16,16,18,18,21,21,22,22,24,24,25,25,26,26,27,27],"right_children":[2,4,6,8,10,12,14,16,18,-1,20,22,24,26,28,30,32,-1,34,-1,-1,36,38,-1,40,42,44,46,-1,-1,-1,-1,-1,-1,-1,-1,-1,-1,-1,-1,-1,-1,-1,-1,-1,-1,-1],"split_conditions":[6.524052E-1,8E-1,4.5934066E-1,5E-1,5.7735044E-1,5E-1,5.9774053E-1,8.6124456E-1,7.037356E-1,6.686853E-2,8.8166666E-1,8.138889E-1,6.9417393E-1,8.6083335E-1,7.5431037E-1,9.061583E-1,7.5865126E-1,-2.8980358E-2,1.388889E-1,-1.6889093E-2,3.525508E-2,9.7619045E-1,3.693182E-1,-5.100425E-3,5.1975685E-1,5E-1,7.0408165E-1,5E-1,7.56021E-2,-6.9493346E-2,-1.5289887E-2,-1.19392155E-2,3.161387E-2,5.4446716E-2,8.216125E-3,-7.2252296E-2,4.50418E-3,5.0434258E-2,5.933052E-3,4.0151314E-3,6.107814E-2,-3.2941233E-2,3.1182919E-2,1.2020122E-2,5.9499163E-2,2.0874754E-2,7.0940405E-2],"split_indices":[12,2,9,4,5,4,1,1,13,0,2,0,13,12,9,14,11,0,2,0,0,14,9,0,11,4,11,4,0,0,0,0,0,0,0,0,0,0,0,0,0,0,0,0,0,0,0],"split_type":[0,0,0,0,0,0,0,0,0,0,0,0,0,0,0,0,0,0,0,0,0,0,0,0,0,0,0,0,0,0,0,0,0,0,0,0,0,0,0,0,0,0,0,0,0,0,0],"sum_hessian":[1.4880883E3,2.1478867E2,1.2732996E3,1.8026387E2,3.4524796E1,1.0037998E2,1.1729196E3,1.4964139E2,3.062249E1,2.879979E1,5.725008E0,7.0064445E1,3.0315538E1,3.8934814E1,1.1339849E3,1.4455013E2,5.0912604E0,3.7043808E0,2.6918108E1,1.9378961E0,3.7871118E0,5.789174E1,1.2172708E1,1.2381947E0,2.9077345E1,1.6626255E1,2.2308558E1,1.0749057E2,1.0264943E3,1.3547954E2,9.070582E0,1.9417042E0,3.1495562E0,1.8726067E1,8.192041E0,5.6207306E1,1.6844321E0,9.300365E0,2.8723426E0,1.4593735E0,2.7617971E1,1.0341433E1,6.284822E0,4.471677E0,1.7836882E1,5.567216E1,5.1818405E1],"tree_param":{"num_deleted":"0","num_feature":"15","num_nodes":"47","size_leaf_vector":"0"}},{"base_weights":[9.9488145E-1,-4.9848217E-1,1.375618E0,-9.437502E-1,1.0216197E0,7.0653635E-1,1.4544106E0,-1.1680698E0,6.570569E-1,1.1566427E-1,1.3106602E0,2.2204061E-1,1.3579042E0,5.2631164E-1,1.4631839E0,-1.43125E0,5.3833306E-1,-3.384505E-1,1.0725707E0,8.4932363E-1,-4.7064644E-1,5.7426136E-2,1.3401214E0,-4.6745571E-1,1.1054993E0,-2.1124272E-1,8.574397E-1,-1.4395404E0,-4.1813686E-2,-4.8229185E-1,1.1202431E0,2.432701E-1,-5.011932E-1,3.8837187E-2,1.1294183E0,-7.5935555E-1,4.4734362E-1,2.0107748E-1,-9.8461074E-1,1.2231759E0,3.0127087E-1,2.915479E-1,-5.927311E-1],"categories":[],"categories_nodes":[],"categories_segments":[],"categories_sizes":[],"default_left":[true,true,true,true,true,true,true,true,true,true,false,true,false,false,false,true,false,true,true,false,true,false,false,true,true,true,false,false,false,false,false,false,false,false,false,false,false,false,false,false,false,false,false],"id":8,"left_children":[1,3,5,7,9,11,13,15,17,19,21,23,-1,25,-1,27,29,31,33,-1,35,-1,-1,37,39,41,-1,-1,-1,-1,-1,-1,-1,-1,-1,-1,-1,-1,-1,-1,-1,-1,-1],"loss_changes":[8.2235645E2,2.0535791E2,5.5437256E1,8.705853E1,1.744767E1,3.976468E1,4.4814453E0,9.594754E1,1.4921048E1,1.1591205E1,1.5434265E0,5.190852E1,0E0,5.152959E0,0E0,1.7613525E0,2.113364E1,1.8527402E0,1.1647854E0,0E0,5.836166E0,0E0,0E0,1.792873E1,1.6572533E0,2.6670923E0,0E0,0E0,0E0,0E0,0E0,0E0,0E0,0E0,0E0,0E0,0E0,0E0,0E0,0E0,0E0,0E0,0E0],"parents":[2147483647,0,0,1,1,2,2,3,3,4,4,5,5,6,6,7,7,8,8,9,9,10,10,11,11,13,13,15,15,16,16,17,17,18,18,20,20,23,23,24,24,25,25],"right_children":[2,4,6,8,10,12,14,16,18,20,22,24,-1,26,-1,28,30,32,34,-1,36,-1,-1,38,40,42,-1,-1,-1,-1,-1,-1,-1,-1,-1,-1,-1,-1,-1,-1,-1,-1,-1],"split_conditions":[5.395011E-1,7.933532E-1,7.7097905E-1,9.4558823E-1,8.168254E-1,8.365741E-1,6.4121866E-1,5E-1,5E-1,2.0601852E-1,4.4949496E-1,5E-1,6.789521E-2,4.6862745E-1,7.3159195E-2,4.9242425E-1,4.6606335E-1,5.650492E-1,4.520021E-1,4.2466182E-2,5E-1,2.8713068E-3,6.7006074E-2,5.263158E-2,3.4057972E-1,5.91957E-1,4.2871986E-2,-7.197702E-2,-2.0906844E-3,-2.4114592E-2,5.6012154E-2,1.2163505E-2,-2.505966E-2,1.9418594E-3,5.6470912E-2,-3.796778E-2,2.2367181E-2,1.0053874E-2,-4.923054E-2,6.1158795E-2,1.5063544E-2,1.4577395E-2,-2.9636556E-2],"split_indices":[9,1,9,14,2,2,12,4,4,2,10,4,0,3,0,6,3,1,12,0,4,0,0,7,7,5,0,0,0,0,0,0,0,0,0,0,0,0,0,0,0,0,0],"split_type":[0,0,0,0,0,0,0,0,0,0,0,0,0,0,0,0,0,0,0,0,0,0,0,0,0,0,0,0,0,0,0,0,0,0,0,0,0,0,0,0,0,0,0],"sum_hessian":[1.4353083E3,2.9127878E2,1.1440297E3,2.2675385E2,6.452494E1,1.25780106E2,1.0182495E3,2.0006985E2,2.6683989E1,1.730035E1,4.722459E1,7.597405E1,4.980605E1,1.2391014E1,1.0058585E3,1.7403458E2,2.603528E1,8.130906E0,1.8553082E1,6.68827E0,1.0612082E1,1.4233541E0,4.5801235E1,4.39936E1,3.1980453E1,4.400221E0,7.990793E0,1.7282307E2,1.2114966E0,9.764706E0,1.6270575E1,1.2366078E0,6.894298E0,1.4057841E0,1.7147299E1,8.730392E0,1.8816884E0,2.052133E1,2.347227E1,2.5626123E1,6.3543286E0,2.4068599E0,1.9933611E0],"tree_param":{"num_deleted":"0","num_feature":"15","num_nodes":"43","size_leaf_vector":"0"}},{"base_weights":[9.7303593E-1,-5.086349E-1,1.2261364E0,-9.909354E-1,9.3141633E-1,7.285253E-1,1.4420334E0,-1.1309623E0,5.4223126E-1,-3.5109985E-1,1.1110535E0,2.4856564E-1,1.2485013E0,-1.255502E0,-4.5496616E-1,8.368772E-1,-1.311546E-1,-7.5530416E-1,4.2455477E-1,-5.035676E-2,1.1680225E0,8.125968E-1,-8.809957E-1,2.0663589E-1,1.303175E0,-1.2761021E0,1.7405798E-1,2.655728E-1,-9.1014266E-1,-4.1539788E-1,2.7779758E-1,1.1890349E0,1.0995208E-1,1.947679E-1,1.2974577E0,-1.2292553E0,-6.2574446E-2,5.71902E-1,-3.3173773E-1,-1.2305738E-2,1.3309726E0],"categories":[],"categories_nodes":[],"categories_segments":[],"categories_sizes":[],"default_left":[true,true,true,true,false,true,false,true,true,true,false,true,false,false,true,false,true,false,false,false,true,false,false,false,false,false,false,false,false,false,false,false,false,false,false,false,false,false,false,false,false],"id":9,"left_children":[1,3,5,7,9,11,-1,13,15,17,19,21,23,25,27,-1,29,-1,-1,-1,31,33,35,37,39,-1,-1,-1,-1,-1,-1,-1,-1,-1,-1,-1,-1,-1,-1,-1,-1],"loss_changes":[5.3884326E2,1.518277E2,1.2598682E2,3.767386E1,1.4795883E1,9.321977E1,0E0,9.715958E0,3.896068E0,4.9421744E0,3.6093483E0,1.3336642E2,8.965515E0,4.7404175E0,1.1399729E1,0E0,1.6763434E0,0E0,0E0,0E0,4.1281128E-1,4.0216583E1,1.9636326E1,3.8921394E0,6.3371277E0,0E0,0E0,0E0,0E0,0E0,0E0,0E0,0E0,0E0,0E0,0E0,0E0,0E0,0E0,0E0,0E0],"parents":[2147483647,0,0,1,1,2,2,3,3,4,4,5,5,7,7,8,8,9,9,10,10,11,11,12,12,13,13,14,14,16,16,20,20,21,21,22,22,23,23,24,24],"right_children":[2,4,6,8,10,12,-1,14,16,18,20,22,24,26,28,-1,30,-1,-1,-1,32,34,36,38,40,-1,-1,-1,-1,-1,-1,-1,-1,-1,-1,-1,-1,-1,-1,-1,-1],"split_conditions":[6.5076417E-1,7.836546E-1,8.570028E-1,9.75E-1,3.9373463E-1,7.666873E-1,7.2101675E-2,5.811392E-1,2.0899472E-1,9.1582894E-1,5.427273E-1,5E-2,5.595677E-1,9.4398737E-1,4E-2,4.184386E-2,6.415584E-1,-3.776521E-2,2.1227738E-2,-2.517838E-3,8.5714287E-1,9.228741E-1,8.9736843E-1,4.3415815E-1,4.4722223E-1,-6.38051E-2,8.702899E-3,1.327864E-2,-4.5507133E-2,-2.0769894E-2,1.3889879E-2,5.9451748E-2,5.497604E-3,9.738396E-3,6.487288E-2,-6.1462767E-2,-3.1287223E-3,2.85951E-2,-1.6586887E-2,-6.1528693E-4,6.654863E-2],"split_indices":[12,1,12,14,11,1,0,12,2,1,14,7,13,13,7,0,2,0,0,0,6,11,13,13,14,0,0,0,0,0,0,0,0,0,0,0,0,0,0,0,0],"split_type":[0,0,0,0,0,0,0,0,0,0,0,0,0,0,0,0,0,0,0,0,0,0,0,0,0,0,0,0,0,0,0,0,0,0,0,0,0,0,0,0,0],"sum_hessian":[1.423556E3,2.0695813E2,1.2165979E3,1.5620238E2,5.0755753E1,3.747427E2,8.418552E2,1.4433195E2,1.1870416E1,5.6494107E0,4.5106342E1,1.9871272E2,1.7603E2,1.1825866E2,2.6073296E1,7.41289E0,4.4575257E0,3.800237E0,1.8491735E0,2.136221E0,4.2970123E1,1.3346956E2,6.524317E1,9.968408E0,1.6606158E2,1.17107864E2,1.1507969E0,1.0900571E1,1.5172724E1,2.5832343E0,1.8742915E0,4.1526558E1,1.4435652E0,6.1769245E1,7.170031E1,4.4007084E1,2.1236084E1,5.7534943E0,4.214913E0,3.4941187E0,1.6256747E2],"tree_param":{"num_deleted":"0","num_feature":"15","num_nodes":"41","size_leaf_vector":"0"}},{"base_weights":[9.332598E-1,-4.6976006E-1,1.1773193E0,-1.0207834E0,8.204461E-1,6.461923E-1,1.4091386E0,-1.1321548E0,4.9758872E-1,-9.707254E-2,1.1383859E0,1.6112971E-1,1.192988E0,-1.1522102E0,2.2437637E-1,-3.032469E-1,6.95614E-1,7.0946014E-1,-8.439614E-1,3.365915E-2,1.1737449E0,7.619007E-1,-1.042025E0,2.2096638E-1,1.2804248E0,-1.2104784E0,-2.8709E-1,7.694465E-1,2.2459136E-2,7.811613E-1,5.5030987E-2,-9.038629E-1,-4.1961115E-2,1.1955866E0,1.0873319E-1,3.157449E-1,1.0930732E0,-1.1857601E0,5.3366715E-1,-7.4049973E-1,9.2661846E-1,7.490315E-1,1.3449217E0],"categories":[],"categories_nodes":[],"categories_segments":[],"categories_sizes":[],"default_left":[true,true,true,true,true,true,false,true,false,true,false,true,false,true,false,false,false,true,true,false,true,true,true,true,true,false,false,false,false,false,false,false,false,false,false,false,false,false,false,false,false,false,false],"id":10,"left_children":[1,3,5,7,9,11,-1,13,15,17,19,21,23,25,-1,-1,27,29,31,-1,33,35,37,39,41,-1,-1,-1,-1,-1,-1,-1,-1,-1,-1,-1,-1,-1,-1,-1,-1,-1,-1],"loss_changes":[4.7390247E2,1.5167165E2,1.3992896E2,2.7775604E1,1.9471985E1,9.605614E1,0E0,5.075241E0,3.205074E0,1.5823192E1,1.6992607E0,1.4825566E2,1.3133163E1,5.210037E0,0E0,0E0,5.2935505E-1,3.930149E-1,4.5128632E-1,0E0,4.4107056E-1,1.837259E1,1.8698608E1,1.7114965E1,3.0969238E-1,0E0,0E0,0E0,0E0,0E0,0E0,0E0,0E0,0E0,0E0,0E0,0E0,0E0,0E0,0E0,0E0,0E0,0E0],"parents":[2147483647,0,0,1,1,2,2,3,3,4,4,5,5,7,7,8,8,9,9,10,10,11,11,12,12,13,13,16,16,17,17,18,18,20,20,21,21,22,22,23,23,24,24],"right_children":[2,4,6,8,10,12,-1,14,16,18,20,22,24,26,-1,-1,28,30,32,-1,34,36,38,40,42,-1,-1,-1,-1,-1,-1,-1,-1,-1,-1,-1,-1,-1,-1,-1,-1,-1,-1],"split_conditions":[6.5076417E-1,7.360681E-1,8.570028E-1,9.598485E-1,7.8982896E-1,7.611946E-1,7.045693E-2,7.9936504E-1,8.698729E-1,5.276803E-1,4.597826E-1,5E-2,6.782353E-1,6.1834735E-1,1.1218819E-2,-1.5162344E-2,9.45E-1,5.962963E-1,7.655678E-1,1.6829575E-3,9E-1,6.0097086E-1,9.776119E-1,8.9181286E-1,8.356997E-1,-6.0523923E-2,-1.43545E-2,3.8472325E-2,1.1229569E-3,3.9058067E-2,2.7515495E-3,-4.5193147E-2,-2.0980558E-3,5.9779327E-2,5.43666E-3,1.5787246E-2,5.4653663E-2,-5.9288006E-2,2.6683358E-2,-3.7024986E-2,4.6330925E-2,3.7451576E-2,6.724609E-2],"split_indices":[12,8,12,14,1,1,0,2,13,0,13,7,13,12,0,0,13,7,7,0,6,8,8,8,1,0,0,0,0,0,0,0,0,0,0,0,0,0,0,0,0,0,0],"split_type":[0,0,0,0,0,0,0,0,0,0,0,0,0,0,0,0,0,0,0,0,0,0,0,0,0,0,0,0,0,0,0,0,0,0,0,0,0,0,0,0,0,0,0],"sum_hessian":[1.3709032E3,2.0245135E2,1.1684519E3,1.4259552E2,5.9855824E1,3.6078525E2,8.076666E2,1.3403592E2,8.559611E0,1.6297499E1,4.3558323E1,1.9461534E2,1.661699E2,1.3282527E2,1.2106408E0,1.1702442E0,7.3893676E0,7.9563494E0,8.34115E0,1.6536251E0,4.19047E1,1.310246E2,6.359075E1,1.5169429E1,1.5100049E2,1.225736E2,1.025167E1,6.014467E0,1.3749008E0,6.2980514E0,1.658298E0,7.1705294E0,1.1706204E0,4.0461872E1,1.4428266E0,5.9982803E1,7.104179E1,5.9408794E1,4.181958E0,6.316349E0,8.85308E0,2.3169891E1,1.2783059E2],"tree_param":{"num_deleted":"0","num_feature":"15","num_nodes":"43","size_leaf_vector":"0"}},{"base_weights":[9.2212456E-1,-3.974019E-1,1.1773646E0,-9.409121E-1,9.558743E-1,2.9800688E-3,1.3367333E0,-1.2143139E0,4.0050063E-1,-4.809381E-1,1.154374E0,-6.305484E-1,1.1514794E0,6.2489223E-1,1.3498459E0,-1.2781059E0,-5.294881E-1,-7.3549575E-1,9.852316E-1,-8.664587E-1,4.172563E-1,2.3651049E-1,1.2486546E0,-1.1786696E0,1.0512877E0,-1.4133506E-1,1.1966512E0,-1.4808016E-1,9.9827486E-1,7.028181E-1,1.3657377E0,-1.300658E0,-1.1155468E-2,1.9253318E-1,-6.8977517E-1,-9.241605E-1,2.1986279E-1,1.1259553E0,1.4209105E-1,6.2091845E-1,-3.4903082E-1,1.2901607E0,1.9574687E-1,-1.2495489E0,2.92725E-1,2.6904842E-1,1.1687449E0,-5.4657245E-1,4.5830536E-1,9.172749E-1,-5.70694E-1],"categories":[],"categories_nodes":[],"categories_segments":[],"categories_sizes":[],"default_left":[true,true,true,true,false,true,false,true,false,true,true,true,false,true,true,true,false,true,true,false,false,true,true,true,false,false,false,true,false,true,false,false,false,false,false,false,false,false,false,false,false,false,false,false,false,false,false,false,false,false,false],"id":11,"left_children":[1,3,5,7,9,11,13,15,17,19,21,23,25,27,29,31,33,35,37,-1,-1,39,41,43,45,-1,-1,47,-1,49,-1,-1,-1,-1,-1,-1,-1,-1,-1,-1,-1,-1,-1,-1,-1,-1,-1,-1,-1,-1,-1],"loss_changes":[4.537395E2,1.6702614E2,2.1040515E2,6.1174545E1,2.1542E1,1.0502465E2,5.022705E0,2.4831543E0,2.413441E1,5.7954626E0,3.6534576E0,9.196687E1,3.8421326E0,8.593953E0,5.151367E0,3.3365784E0,2.9763365E0,3.4232454E0,1.8723869E0,0E0,0E0,3.7149594E0,1.0356293E0,9.393135E0,7.7184296E-1,0E0,0E0,4.4466305E0,0E0,1.1766689E1,0E0,0E0,0E0,0E0,0E0,0E0,0E0,0E0,0E0,0E0,0E0,0E0,0E0,0E0,0E0,0E0,0E0,0E0,0E0,0E0,0E0],"parents":[2147483647,0,0,1,1,2,2,3,3,4,4,5,5,6,6,7,7,8,8,9,9,10,10,11,11,12,12,13,13,14,14,15,15,16,16,17,17,18,18,21,21,22,22,23,23,24,24,27,27,29,29],"right_children":[2,4,6,8,10,12,14,16,18,20,22,24,26,28,30,32,34,36,38,-1,-1,40,42,44,46,-1,-1,48,-1,50,-1,-1,-1,-1,-1,-1,-1,-1,-1,-1,-1,-1,-1,-1,-1,-1,-1,-1,-1,-1,-1],"split_conditions":[6.7569053E-1,7.954147E-1,6.300752E-1,5E-1,3.8918918E-1,5E-1,3.726852E-1,9.705882E-1,4.8076922E-1,8.9750004E-1,5.8055556E-1,8.093138E-1,6.8024087E-1,8.79953E-1,5.960925E-1,8.248082E-1,8.533621E-1,4.5804197E-1,4.761905E-2,-4.3322936E-2,2.0862816E-2,1.25E-1,6.649123E-1,9.576119E-1,7.875438E-1,-7.0667528E-3,5.983256E-2,8.6493504E-1,4.9913745E-2,5E-2,6.828689E-2,-6.50329E-2,-5.5777346E-4,9.62666E-3,-3.448876E-2,-4.6208024E-2,1.099314E-2,5.6297768E-2,7.104553E-3,3.1045923E-2,-1.7451541E-2,6.4508036E-2,9.787343E-3,-6.2477447E-2,1.463625E-2,1.3452421E-2,5.8437247E-2,-2.7328623E-2,2.2915268E-2,4.5863744E-2,-2.8534701E-2],"split_indices":[12,1,9,4,11,4,10,10,3,0,0,0,13,12,1,8,13,7,7,0,0,7,12,8,13,0,0,8,0,7,0,0,0,0,0,0,0,0,0,0,0,0,0,0,0,0,0,0,0,0,0],"split_type":[0,0,0,0,0,0,0,0,0,0,0,0,0,0,0,0,0,0,0,0,0,0,0,0,0,0,0,0,0,0,0,0,0,0,0,0,0,0,0,0,0,0,0,0,0,0,0,0,0,0,0],"sum_hessian":[1.3352772E3,2.1597195E2,1.1193053E3,1.5517378E2,6.0798172E1,1.3435316E2,9.8495215E2,1.2929509E2,2.5878696E1,6.5163255E0,5.4281845E1,8.804255E1,4.6310616E1,2.2215643E1,9.627365E2,1.14314964E2,1.498012E1,8.355914E0,1.7522781E1,4.682975E0,1.8333504E0,6.6904297E0,4.7591415E1,6.752998E1,2.051257E1,1.2041416E0,4.5106476E1,8.218613E0,1.399703E1,2.849991E1,9.342366E2,1.12185005E2,2.1299577E0,2.5386703E0,1.2441449E1,7.114265E0,1.2416497E0,1.3579203E1,3.9435782E0,3.8565288E0,2.8339012E0,4.4702568E1,2.888849E0,6.5145676E1,2.3843071E0,4.825938E0,1.5686632E1,5.25707E0,2.961543E0,2.5589357E1,2.9105542E0],"tree_param":{"num_deleted":"0","num_feature":"15","num_nodes":"51","size_leaf_vector":"0"}},{"base_weights":[8.969071E-1,-5.422804E-1,1.217927E0,-9.5154303E-1,9.5057476E-1,5.8208567E-1,1.3164487E0,-1.2468872E0,1.0275526E0,3.1347964E-3,1.1456008E0,6.8831146E-2,1.1641594E0,3.8355905E-1,1.3237834E0,-1.2907115E0,5.7748355E-2,1.05966836E-1,1.1041324E0,-5.199658E-1,5.8631164E-1,5.6877956E-2,1.2334797E0,6.434764E-1,-7.523244E-1,2.7458707E-3,1.1919044E0,-2.638988E-1,6.440184E-1,8.730209E-1,1.3453091E0,-2.1349603E-1,-1.3007482E0,-5.026855E-1,4.2896208E-1,-1.7870533E-1,3.0915117E-1,1.619313E-1,-6.9782645E-1,-4.263197E-1,4.5202976E-1,1.1442716E-1,1.2500595E0,-1.8072093E-1,1.1143451E0,-1.0941085E0,-1.633731E-2,-4.7164047E-1,1.6689135E-1,5.122073E-2,7.162905E-1,5.5337876E-2,1.1741874E0],"categories":[],"categories_nodes":[],"categories_segments":[],"categories_sizes":[],"default_left":[true,true,true,true,true,true,true,true,true,true,false,true,false,true,false,true,false,true,false,true,false,false,true,true,false,false,false,true,true,true,false,false,false,false,false,false,false,false,false,false,false,false,false,false,false,false,false,false,false,false,false,false,false],"id":12,"left_children":[1,3,5,7,9,11,13,15,17,19,21,23,25,27,29,31,33,35,-1,37,-1,39,41,43,45,-1,-1,47,49,51,-1,-1,-1,-1,-1,-1,-1,-1,-1,-1,-1,-1,-1,-1,-1,-1,-1,-1,-1,-1,-1,-1,-1],"loss_changes":[6.151677E2,1.5420508E2,6.409802E1,1.20256516E2,1.018425E1,4.573909E1,3.8585205E0,1.0192108E1,1.393465E0,5.929105E0,4.028763E0,4.3655994E1,2.3054962E0,3.2668705E0,3.1086426E0,4.1027832E-1,3.235021E0,7.205437E-1,0E0,1.8095462E0,0E0,2.617166E0,6.616974E-2,2.2004457E1,9.540365E0,0E0,0E0,1.0789473E0,3.167286E-1,1.3571201E1,0E0,0E0,0E0,0E0,0E0,0E0,0E0,0E0,0E0,0E0,0E0,0E0,0E0,0E0,0E0,0E0,0E0,0E0,0E0,0E0,0E0,0E0,0E0],"parents":[2147483647,0,0,1,1,2,2,3,3,4,4,5,5,6,6,7,7,8,8,9,9,10,10,11,11,12,12,13,13,14,14,15,15,16,16,17,17,19,19,21,21,22,22,23,23,24,24,27,27,28,28,29,29],"right_children":[2,4,6,8,10,12,14,16,18,20,22,24,26,28,30,32,34,36,-1,38,-1,40,42,44,46,-1,-1,48,50,52,-1,-1,-1,-1,-1,-1,-1,-1,-1,-1,-1,-1,-1,-1,-1,-1,-1,-1,-1,-1,-1,-1,-1],"split_conditions":[4.7722566E-1,5E-1,7.7097905E-1,9.028302E-1,4.5431036E-1,8.4412956E-1,3.7617925E-1,8.2228756E-1,9.29402E-1,6.770834E-1,6.4102566E-1,3.448276E-2,2.967033E-1,8.775E-1,3.8529015E-1,7.151979E-2,9.375E-1,8.6825395E-1,5.5206623E-2,2.2011495E-1,2.9315582E-2,8.303287E-1,4.108042E-1,5.804534E-1,8.8562095E-1,1.3729354E-4,5.9595224E-2,1.9097222E-1,4.5E-1,8.59127E-1,6.726546E-2,-1.0674802E-2,-6.5037414E-2,-2.5134275E-2,2.1448104E-2,-8.935267E-3,1.5457558E-2,8.0965655E-3,-3.4891322E-2,-2.1315984E-2,2.2601489E-2,5.721358E-3,6.250297E-2,-9.036046E-3,5.5717256E-2,-5.4705422E-2,-8.1686553E-4,-2.3582024E-2,8.344567E-3,2.5610365E-3,3.5814524E-2,2.766894E-3,5.870937E-2],"split_indices":[9,4,9,8,12,8,8,2,8,8,10,7,10,12,11,9,10,0,0,8,0,11,8,8,11,0,0,0,10,8,0,0,0,0,0,0,0,0,0,0,0,0,0,0,0,0,0,0,0,0,0,0,0],"split_type":[0,0,0,0,0,0,0,0,0,0,0,0,0,0,0,0,0,0,0,0,0,0,0,0,0,0,0,0,0,0,0,0,0,0,0,0,0,0,0,0,0,0,0,0,0,0,0,0,0,0,0,0,0],"sum_hessian":[1.3193617E3,2.3999162E2,1.0793701E3,1.8977757E2,5.0214058E1,1.4944164E2,9.2992847E2,1.6674391E2,2.3033657E1,9.439103E0,4.0774956E1,8.238679E1,6.7054855E1,9.333153E0,9.205953E2,1.6137645E2,5.3674707E0,2.6815658E0,2.035209E1,5.261539E0,4.177564E0,3.6605792E0,3.7114376E1,4.9104973E1,3.328181E1,1.6927054E0,6.5362144E1,2.6585133E0,6.6746397E0,5.1428795E1,8.691665E2,2.517676E0,1.5885876E2,1.4330741E0,3.9343963E0,1.3677119E0,1.313854E0,1.1811088E0,4.08043E0,1.4693981E0,2.1911812E0,1.1186551E0,3.599572E1,1.8974115E1,3.0130857E1,2.1066046E1,1.2215765E1,1.4737086E0,1.1848047E0,1.6537421E0,5.020898E0,1.543653E1,3.5992264E1],"tree_param":{"num_deleted":"0","num_feature":"15","num_nodes":"53","size_leaf_vector":"0"}},{"base_weights":[8.7992543E-1,-2.897629E-1,1.2533094E0,-7.6895344E-1,1.0097492E0,3.2915756E-1,1.2815E0,-1.1213235E0,1.0595943E0,-2.7171838E-1,1.1332326E0,-4.1005066E-1,8.1884664E-1,6.767487E-1,1.3028715E0,-1.1989027E0,4.4459447E-1,1.7682268E-1,1.1362597E0,-7.2962505E-1,4.1719294E-1,-1.2384892E-1,1.1600899E0,-6.0802406E-1,3.6362046E-1,8.61634E-1,1.8387953E-2,1.099511E-2,1.1145734E0,4.8478872E-1,1.3072484E0,-1.2049779E0,-3.6617182E-2,-2.7521014E-1,7.9747343E-1,4.1170105E-1,-2.2512001E-1,1.1812178E0,-1.9250544E-2,4.316103E-1,1.2264037E0,-8.442729E-1,3.764768E-2,-2.84293E-1,1.0417254E0,-5.5258715E-1,7.915134E-1,-2.4308918E-2,6.2618774E-1],"categories":[],"categories_nodes":[],"categories_segments":[],"categories_sizes":[],"default_left":[true,true,true,true,false,false,true,true,true,false,false,true,true,true,true,false,false,false,true,false,false,false,true,true,false,false,false,true,false,true,false,false,false,false,false,false,false,false,false,false,false,false,false,false,false,false,false,false,false],"id":13,"left_children":[1,3,5,7,9,11,13,15,17,19,21,23,25,27,29,31,33,35,37,-1,-1,-1,39,41,-1,43,-1,45,-1,47,-1,-1,-1,-1,-1,-1,-1,-1,-1,-1,-1,-1,-1,-1,-1,-1,-1,-1,-1],"loss_changes":[5.6202216E2,1.9968814E2,2.324646E1,1.5578926E2,1.5286385E1,1.4542845E1,7.7753906E0,2.664827E1,1.7124519E0,5.202853E0,3.4262314E0,3.7847307E0,7.10063E-1,1.23506775E1,7.2265625E-2,1.1171265E0,4.3908777E0,1.3253019E0,1.9847603E0,0E0,0E0,0E0,1.1701508E0,2.5689902E0,0E0,5.9727993E0,0E0,1.1839527E1,0E0,9.949393E-1,0E0,0E0,0E0,0E0,0E0,0E0,0E0,0E0,0E0,0E0,0E0,0E0,0E0,0E0,0E0,0E0,0E0,0E0,0E0],"parents":[2147483647,0,0,1,1,2,2,3,3,4,4,5,5,6,6,7,7,8,8,9,9,10,10,11,11,12,12,13,13,14,14,15,15,16,16,17,17,18,18,22,22,23,23,25,25,27,27,29,29],"right_children":[2,4,6,8,10,12,14,16,18,20,22,24,26,28,30,32,34,36,38,-1,-1,-1,40,42,-1,44,-1,46,-1,48,-1,-1,-1,-1,-1,-1,-1,-1,-1,-1,-1,-1,-1,-1,-1,-1,-1,-1,-1],"split_conditions":[6.300752E-1,5E-1,6.695534E-1,9.0399384E-1,6.93586E-1,7.7097905E-1,7.2281325E-1,8.248366E-1,9.29402E-1,6.180371E-1,3.0625E-1,9.266667E-1,6.5959185E-1,8.615611E-1,3.7617925E-1,9.321569E-1,9.275E-1,2.000001E0,8.6875E-1,-3.6481254E-2,2.0859648E-2,-6.192446E-3,4.5431036E-1,8.200431E-1,1.8181024E-2,4.4957983E-1,9.1939763E-4,5E-1,5.572867E-2,8.775E-1,6.5362416E-2,-6.0248893E-2,-1.8308591E-3,-1.3760507E-2,3.987367E-2,2.0585053E-2,-1.1256001E-2,5.906089E-2,-9.625272E-4,2.1580515E-2,6.1320186E-2,-4.2213645E-2,1.882384E-3,-1.421465E-2,5.208627E-2,-2.7629359E-2,3.957567E-2,-1.2154459E-3,3.130939E-2],"split_indices":[9,4,12,8,13,11,9,0,8,10,11,8,12,8,8,13,14,14,12,0,0,0,12,9,0,3,0,4,0,14,0,0,0,0,0,0,0,0,0,0,0,0,0,0,0,0,0,0,0],"split_type":[0,0,0,0,0,0,0,0,0,0,0,0,0,0,0,0,0,0,0,0,0,0,0,0,0,0,0,0,0,0,0,0,0,0,0,0,0,0,0,0,0,0,0,0,0,0,0,0,0],"sum_hessian":[1.2776914E3,3.0943954E2,9.6825183E2,2.2756654E2,8.187299E1,3.0537664E1,9.377142E2,1.924201E2,3.5146446E1,6.668405E0,7.520459E1,1.2492624E1,1.804504E1,3.758202E1,9.0013214E2,1.844537E2,7.966392E0,4.1294637E0,3.1016983E1,3.8283067E0,2.8400981E0,1.1954073E0,7.400918E1,1.0799647E1,1.6929772E0,1.6766672E1,1.2783663E0,1.694346E1,2.0638557E1,7.764021E0,8.923681E2,1.833119E2,1.1417992E0,2.9827216E0,4.98367E0,2.5297778E0,1.5996855E0,2.974831E1,1.2686713E0,9.307386E0,6.47018E1,6.7806797E0,4.0189676E0,1.8842307E0,1.4882442E1,1.0686951E1,6.25651E0,2.587678E0,5.176343E0],"tree_param":{"num_deleted":"0","num_feature":"15","num_nodes":"49","size_leaf_vector":"0"}},{"base_weights":[8.480227E-1,-3.1223816E-1,1.2328794E0,-7.86032E-1,9.690684E-1,7.282356E-1,1.2798586E0,-1.1538976E0,8.8852566E-1,-2.996279E-1,1.0975553E0,-6.193154E-2,9.68721E-1,5.952361E-1,1.2959536E0,-1.2140485E0,1.8223949E-1,-4.981629E-2,1.0842512E0,-6.712902E-1,3.743058E-1,5.111299E-1,1.2177558E0,-9.40023E-1,5.538848E-1,1.0198584E0,1.0380142E-1,8.3244765E-1,-3.931078E-1,-1.2244835E0,-1.7372988E-2,-4.494766E-1,5.155811E-1,-4.3701726E-1,3.919407E-1,1.1102986E-2,1.1230133E0,-3.1284177E-1,9.420061E-1,-4.416462E-1,9.056845E-1,-3.7257653E-2,1.0427036E0,-4.0662077E-1,4.2128912E-1,9.258715E-1,-2.1199115E-1,-6.9517726E-1,2.1623547E-1],"categories":[],"categories_nodes":[],"categories_segments":[],"categories_sizes":[],"default_left":[true,true,true,true,false,false,true,true,true,true,false,true,true,true,false,true,false,false,false,false,false,true,false,false,true,true,true,true,true,false,false,false,false,false,false,false,false,false,false,false,false,false,false,false,false,false,false,false,false],"id":14,"left_children":[1,3,5,7,9,11,13,15,17,19,21,23,25,27,-1,29,31,33,35,-1,-1,37,-1,-1,39,41,43,45,47,-1,-1,-1,-1,-1,-1,-1,-1,-1,-1,-1,-1,-1,-1,-1,-1,-1,-1,-1,-1],"loss_changes":[5.57548E2,1.943812E2,1.7515625E1,1.4800215E2,1.5823395E1,1.764212E1,5.4993896E0,1.6564331E1,8.46109E0,4.2437086E0,2.530861E0,1.6659542E1,2.578659E0,8.376785E0,0E0,2.2001038E0,3.8189585E0,2.9907126E0,1.4818268E0,0E0,0E0,9.367432E0,0E0,0E0,8.45295E0,1.7828293E0,2.3942778E0,3.4002705E0,2.4010239E0,0E0,0E0,0E0,0E0,0E0,0E0,0E0,0E0,0E0,0E0,0E0,0E0,0E0,0E0,0E0,0E0,0E0,0E0,0E0,0E0],"parents":[2147483647,0,0,1,1,2,2,3,3,4,4,5,5,6,6,7,7,8,8,9,9,10,10,11,11,12,12,13,13,15,15,16,16,17,17,18,18,21,21,24,24,25,25,26,26,27,27,28,28],"right_children":[2,4,6,8,10,12,14,16,18,20,22,24,26,28,-1,30,32,34,36,-1,-1,38,-1,-1,40,42,44,46,48,-1,-1,-1,-1,-1,-1,-1,-1,-1,-1,-1,-1,-1,-1,-1,-1,-1,-1,-1,-1],"split_conditions":[6.300752E-1,5E-1,8.136574E-1,8.574545E-1,6.9035614E-1,6.2828946E-1,5.8178437E-1,9.75E-1,8.294474E-1,9.05E-1,4.6606335E-1,7.284377E-1,8.102564E-1,2.3076923E-1,6.4797685E-2,9.727273E-1,8.857107E-1,9.433333E-1,5.763637E-1,-3.356451E-2,1.871529E-2,6.8162537E-1,6.088779E-2,-4.700115E-2,8.577012E-1,5.216215E-1,8.610039E-1,5.80111E-1,5E-1,-6.1224174E-2,-8.686494E-4,-2.247383E-2,2.5779054E-2,-2.1850863E-2,1.9597037E-2,5.551493E-4,5.6150664E-2,-1.564209E-2,4.7100306E-2,-2.208231E-2,4.5284223E-2,-1.8628826E-3,5.213518E-2,-2.0331038E-2,2.1064457E-2,4.6293575E-2,-1.0599557E-2,-3.4758862E-2,1.0811774E-2],"split_indices":[9,4,9,1,13,11,1,14,0,0,3,1,5,5,0,8,13,14,13,0,0,1,0,0,8,1,8,1,4,0,0,0,0,0,0,0,0,0,0,0,0,0,0,0,0,0,0,0,0],"split_type":[0,0,0,0,0,0,0,0,0,0,0,0,0,0,0,0,0,0,0,0,0,0,0,0,0,0,0,0,0,0,0,0,0,0,0,0,0,0,0,0,0,0,0,0,0,0,0,0,0],"sum_hessian":[1.2393016E3,3.0891928E2,9.303824E2,2.2693668E2,8.198259E1,8.626312E1,8.4411926E2,1.873372E2,3.959948E1,6.9267817E0,7.505581E1,2.0994265E1,6.526886E1,2.3751015E1,8.203682E2,1.7970406E2,7.633136E0,7.477662E0,3.2121815E1,4.477264E0,2.449518E0,1.7234577E1,5.782123E1,7.5691266E0,1.34251375E1,6.0779648E1,4.4892125E0,1.9789927E1,3.9610882E0,1.7803542E2,1.6686523E0,2.0348692E0,5.5982666E0,4.0134826E0,3.4641795E0,1.3440242E0,3.0777792E1,6.388138E0,1.084644E1,3.1719952E0,1.0253142E1,1.2189925E0,5.9560658E1,1.1832259E0,3.3059866E0,1.868609E1,1.1038368E0,2.1773806E0,1.7837076E0],"tree_param":{"num_deleted":"0","num_feature":"15","num_nodes":"49","size_leaf_vector":"0"}},{"base_weights":[8.3913374E-1,-5.2224946E-1,1.1465126E0,-8.469769E-1,1.0016698E0,2.3416261E-1,1.2066739E0,-1.1158086E0,3.3145007E-2,-1.23749584E-1,1.1057202E0,-3.28999E-1,9.647079E-1,7.3479676E-1,1.2515295E0,-1.1549512E0,-4.023253E-2,7.7068746E-1,-6.384098E-1,3.0038205E-1,-4.2611524E-1,1.5256698E-1,1.1511383E0,-9.2490655E-1,2.2970267E-1,-1.1746858E-1,1.0547097E0,-4.5927238E-1,8.621383E-1,6.00379E-1,1.2624583E0,4.8420243E-2,-1.1834186E0,-4.836752E-1,4.509614E-1,-1.2918626E-1,8.498973E-1,-8.271112E-1,4.4665265E-1,3.247225E-1,-1.4699721E-1,-1.009148E0,-2.9892212E-2,5.299793E-1,-4.8762393E-1,-6.519394E-1,2.0584998E-1,1.3269554E-1,1.0028826E0,-3.2717255E-1,9.0219575E-1,5.575091E-1,1.2693849E0],"categories":[],"categories_nodes":[],"categories_segments":[],"categories_sizes":[],"default_left":[true,true,true,false,true,true,true,true,true,true,false,false,false,false,true,true,false,false,true,false,false,true,false,true,true,false,false,true,false,true,true,false,false,false,false,false,false,false,false,false,false,false,false,false,false,false,false,false,false,false,false,false,false],"id":15,"left_children":[1,3,5,7,9,11,13,15,17,19,21,23,25,27,29,31,33,35,37,-1,-1,39,-1,41,43,-1,-1,45,47,49,51,-1,-1,-1,-1,-1,-1,-1,-1,-1,-1,-1,-1,-1,-1,-1,-1,-1,-1,-1,-1,-1,-1],"loss_changes":[5.1231757E2,1.1688494E2,5.3174194E1,4.5223007E1,5.634575E0,2.9450497E1,1.512439E1,5.9125977E0,2.692501E1,1.6754811E0,8.188782E-1,1.5036476E1,3.6147785E0,1.6120045E1,2.2149658E0,5.1047974E0,3.3353364E0,2.3883877E0,7.7007E0,0E0,0E0,6.278719E-1,0E0,1.4555016E0,6.820939E0,0E0,0E0,2.2374642E0,8.140263E0,8.0441475E0,4.9145508E-1,0E0,0E0,0E0,0E0,0E0,0E0,0E0,0E0,0E0,0E0,0E0,0E0,0E0,0E0,0E0,0E0,0E0,0E0,0E0,0E0,0E0,0E0],"parents":[2147483647,0,0,1,1,2,2,3,3,4,4,5,5,6,6,7,7,8,8,9,9,10,10,11,11,12,12,13,13,14,14,15,15,16,16,17,17,18,18,21,21,23,23,24,24,27,27,28,28,29,29,30,30],"right_children":[2,4,6,8,10,12,14,16,18,20,22,24,26,28,30,32,34,36,38,-1,-1,40,-1,42,44,-1,-1,46,48,50,52,-1,-1,-1,-1,-1,-1,-1,-1,-1,-1,-1,-1,-1,-1,-1,-1,-1,-1,-1,-1,-1,-1],"split_conditions":[4.599359E-1,8.688172E-1,6.7550015E-1,9.79452E-1,7.361791E-1,7.8629977E-1,7.247475E-1,8.6015975E-1,2.3255814E-2,1.923077E-1,3.0809793E-1,5.278638E-1,3.7179488E-1,5.4415584E-1,5.780763E-1,7.151979E-2,1.7733343E0,3.75E-1,1.4069265E-1,1.5019103E-2,-2.1305762E-2,2.3333335E-1,5.7556916E-2,6.619048E-1,1.3636364E-1,-5.873429E-3,5.2735485E-2,7.6629627E-1,7.8704286E-1,8.617857E-1,7.1339285E-1,2.4210121E-3,-5.917093E-2,-2.4183761E-2,2.254807E-2,-6.459313E-3,4.2494867E-2,-4.135556E-2,2.2332633E-2,1.6236125E-2,-7.349861E-3,-5.04574E-2,-1.4946106E-3,2.6498964E-2,-2.4381196E-2,-3.259697E-2,1.0292499E-2,6.634777E-3,5.0144132E-2,-1.6358627E-2,4.510979E-2,2.7875457E-2,6.3469246E-2],"split_indices":[9,8,12,11,1,8,9,1,5,7,11,3,11,14,1,9,14,3,6,0,0,9,0,0,7,0,0,0,13,12,12,0,0,0,0,0,0,0,0,0,0,0,0,0,0,0,0,0,0,0,0,0,0],"split_type":[0,0,0,0,0,0,0,0,0,0,0,0,0,0,0,0,0,0,0,0,0,0,0,0,0,0,0,0,0,0,0,0,0,0,0,0,0,0,0,0,0,0,0,0,0,0,0,0,0,0,0,0,0],"sum_hessian":[1.2121372E3,2.226267E2,9.895105E2,1.853517E2,3.7274986E1,6.272615E1,9.267843E2,1.4095753E2,4.4394173E1,3.0744793E0,3.420051E1,3.6972847E1,2.5753305E1,8.7994675E1,8.387897E2,1.3565187E2,5.3056636E0,2.0805841E1,2.358833E1,1.2932397E0,1.7812395E0,2.5468874E0,3.165362E1,1.630488E1,2.0667965E1,1.8602195E0,2.3893085E1,7.223887E0,8.077078E1,1.8462278E1,8.203274E2,3.0538876E0,1.3259798E2,2.8285897E0,2.4770741E0,1.4280158E0,1.9377827E1,2.1106398E1,2.481932E0,1.3507274E0,1.1961601E0,1.431948E1,1.9854008E0,1.5489748E1,5.178216E0,5.678181E0,1.5457054E0,1.463505E1,6.6135735E1,4.4294667E0,1.4032812E1,1.19461975E1,8.0838116E2],"tree_param":{"num_deleted":"0","num_feature":"15","num_nodes":"53","size_leaf_vector":"0"}},{"base_weights":[8.1590277E-1,4.3235993E-1,1.2328225E0,-9.668966E-2,1.1845967E0,7.3427373E-1,1.2681603E0,-1.0656393E0,9.4296366E-1,-3.2509646E-1,1.2005912E0,-6.1651593E-1,9.522811E-1,-1.1224071E0,1.5075204E-3,1.1763998E0,-5.926603E-1,7.8828406E-1,1.261247E0,-7.426614E-1,7.9596564E-2,-8.969163E-3,1.0434113E0,-1.1339749E0,-3.379122E-2,-4.678437E-1,4.0045968E-1,1.2236904E0,-6.944984E-1,-1.0426645E0,3.824182E-1,-1.2780161E-1,1.0427562E0,-2.4123073E-1,2.809509E-1,1.4070939E-1,1.0732344E0],"categories":[],"categories_nodes":[],"categories_segments":[],"categories_sizes":[],"default_left":[true,true,false,true,true,true,false,true,true,false,true,true,false,false,false,true,false,true,false,false,false,true,true,false,false,false,false,false,false,false,false,false,false,false,false,false,false],"id":16,"left_children":[1,3,5,7,9,11,-1,13,15,-1,17,19,21,23,25,27,29,31,-1,-1,-1,33,35,-1,-1,-1,-1,-1,-1,-1,-1,-1,-1,-1,-1,-1,-1],"loss_changes":[1.8439368E2,2.4611633E2,5.1714478E0,3.745827E2,8.112274E0,1.7305637E1,0E0,1.1653748E1,6.7875534E1,0E0,1.3692627E0,1.157548E0,3.8995514E0,2.106964E0,3.689823E0,1.8192688E1,1.3852862E1,1.1354168E1,0E0,0E0,0E0,9.291459E-1,3.2759476E-1,0E0,0E0,0E0,0E0,0E0,0E0,0E0,0E0,0E0,0E0,0E0,0E0,0E0,0E0],"parents":[2147483647,0,0,1,1,2,2,3,3,4,4,5,5,7,7,8,8,10,10,11,11,12,12,13,13,14,14,15,15,16,16,17,17,21,21,22,22],"right_children":[2,4,6,8,10,12,-1,14,16,-1,18,20,22,24,26,28,30,32,-1,-1,-1,34,36,-1,-1,-1,-1,-1,-1,-1,-1,-1,-1,-1,-1,-1,-1],"split_conditions":[5E-1,8.536329E-1,5.085137E-1,6.978261E-1,6.2300634E-1,6.334542E-1,6.340802E-2,8.6124456E-1,4E-2,-1.6254824E-2,9.2990506E-1,7.25E-1,3.693182E-1,9.3121195E-1,7.377173E-1,2.3464374E-1,8.8562095E-1,6.3686633E-1,6.3062355E-2,-3.713307E-2,3.979828E-3,9.6341467E-1,3.7218046E-1,-5.6698747E-2,-1.6895611E-3,-2.3392186E-2,2.0022985E-2,6.118452E-2,-3.472492E-2,-5.213323E-2,1.912091E-2,-6.390081E-3,5.213781E-2,-1.2061536E-2,1.4047545E-2,7.035469E-3,5.3661723E-2],"split_indices":[4,8,11,9,1,1,0,1,7,0,8,8,10,13,11,5,11,9,0,0,0,8,9,0,0,0,0,0,0,0,0,0,0,0,0,0,0],"split_type":[0,0,0,0,0,0,0,0,0,0,0,0,0,0,0,0,0,0,0,0,0,0,0,0,0,0,0,0,0,0,0,0,0,0,0,0,0],"sum_hessian":[1.1648005E3,6.119895E2,5.5281104E2,3.6185413E2,2.501354E2,4.379806E1,5.0901294E2,1.8723108E2,1.7462303E2,1.6093063E0,2.485261E2,4.8162746E0,3.8981785E1,1.7752838E2,9.702695E0,1.5259596E2,2.2027071E1,4.084727E1,2.0767883E2,3.7943373E0,1.0219375E0,3.7659602E0,3.5215824E1,1.7545563E2,2.072757E0,4.0613146E0,5.6413803E0,1.5052092E2,2.0750368E0,1.4834361E1,7.1927094E0,9.421019E0,3.1426252E1,2.5571065E0,1.2088536E0,2.0405974E0,3.317523E1],"tree_param":{"num_deleted":"0","num_feature":"15","num_nodes":"37","size_leaf_vector":"0"}},{"base_weights":[7.955516E-1,-2.700696E-1,1.156618E0,-7.2215253E-1,6.293735E-1,1.7492875E-1,1.173655E0,-1.0432111E0,4.4618586E-1,1.04907855E-1,1.0599936E0,-3.610196E-1,4.7053507E-1,4.758358E-1,1.1953176E0,-1.186849E0,1.979768E-1,-3.280613E-2,8.717117E-1,-5.8083326E-1,9.900782E-1,1.3158707E-1,-5.3436935E-1,-1.6647348E-1,5.7839876E-1,6.8185914E-1,-7.09631E-1,3.4967256E-1,1.198665E0,-7.9544775E-2,-1.1991736E0,-3.486312E-1,6.8155086E-1,6.436237E-1,-3.6307004E-1,5.370507E-2,1.0008606E0,-8.2382995E-1,2.246978E-1,1.9748142E-1,1.0570499E0,-6.0558164E-1,-2.1586139E-2,-2.5857165E-1,7.9177284E-1,-1.2224693E-1,8.405503E-1,-2.1677758E-1,5.308569E-1,8.249094E-1,1.2306434E0],"categories":[],"categories_nodes":[],"categories_segments":[],"categories_sizes":[],"default_left":[true,false,false,true,true,true,true,true,true,true,false,true,false,true,false,true,false,true,false,true,true,false,true,false,true,true,false,false,true,false,false,false,false,false,false,false,false,false,false,false,false,false,false,false,false,false,false,false,false,false,false],"id":17,"left_children":[1,3,5,7,9,11,13,15,17,19,-1,21,23,25,27,29,31,33,35,37,39,-1,41,-1,43,45,-1,47,49,-1,-1,-1,-1,-1,-1,-1,-1,-1,-1,-1,-1,-1,-1,-1,-1,-1,-1,-1,-1,-1,-1],"loss_changes":[4.390794E2,1.2093958E2,1.319458E1,7.605256E1,2.2094055E1,4.078248E0,9.776978E0,2.892894E1,9.492374E0,3.369085E1,0E0,1.2118541E0,1.5331371E0,1.0587608E1,1.8725586E-1,1.436966E0,6.5888233E0,7.06572E0,2.3165836E0,7.141781E0,2.3073578E-1,0E0,2.428329E-1,0E0,3.5608983E0,4.474947E0,0E0,1.6262468E0,4.500366E0,0E0,0E0,0E0,0E0,0E0,0E0,0E0,0E0,0E0,0E0,0E0,0E0,0E0,0E0,0E0,0E0,0E0,0E0,0E0,0E0,0E0,0E0],"parents":[2147483647,0,0,1,1,2,2,3,3,4,4,5,5,6,6,7,7,8,8,9,9,11,11,12,12,13,13,14,14,15,15,16,16,17,17,18,18,19,19,20,20,22,22,24,24,25,25,27,27,28,28],"right_children":[2,4,6,8,10,12,14,16,18,20,-1,22,24,26,28,30,32,34,36,38,40,-1,42,-1,44,46,-1,48,50,-1,-1,-1,-1,-1,-1,-1,-1,-1,-1,-1,-1,-1,-1,-1,-1,-1,-1,-1,-1,-1,-1],"split_conditions":[6.262255E-1,9.8275864E-1,3.488844E-1,7.8404653E-1,5E-1,6.9731057E-1,5.90633E-1,5E-1,8.525641E-1,7.8854024E-1,5.2999683E-2,3.6539382E-1,2.0714286E-1,5E-2,3.726852E-1,7.151979E-2,6.904762E-1,9.52381E-2,6.1904764E-1,4.599359E-1,8.2228756E-1,6.579354E-3,8.3333336E-2,-8.323674E-3,7.7350426E-1,4.3650794E-1,-3.5481554E-2,3.0952382E-1,8.248082E-1,-3.9772387E-3,-5.9958678E-2,-1.743156E-2,3.4077544E-2,3.2181185E-2,-1.8153502E-2,2.6852535E-3,5.0043028E-2,-4.11915E-2,1.123489E-2,9.874071E-3,5.2852493E-2,-3.0279083E-2,-1.0793069E-3,-1.2928583E-2,3.958864E-2,-6.1123464E-3,4.2027514E-2,-1.0838879E-2,2.6542846E-2,4.124547E-2,6.153217E-2],"split_indices":[9,11,10,1,4,1,1,4,2,1,0,0,3,7,10,9,10,7,10,9,2,0,6,0,9,10,0,3,9,0,0,0,0,0,0,0,0,0,0,0,0,0,0,0,0,0,0,0,0,0,0],"split_type":[0,0,0,0,0,0,0,0,0,0,0,0,0,0,0,0,0,0,0,0,0,0,0,0,0,0,0,0,0,0,0,0,0,0,0,0,0,0,0,0,0,0,0,0,0,0,0,0,0,0,0],"sum_hessian":[1.1321182E3,2.8683566E2,8.4528253E2,1.9154556E2,9.529011E1,1.5380558E1,8.29902E2,1.5067552E2,4.087003E1,4.576707E1,4.9523037E1,5.074259E0,1.0306299E1,2.8444447E1,8.014575E2,1.3524324E2,1.5432286E1,2.1397976E1,1.9472054E1,2.6757294E1,1.9009775E1,1.6343936E0,3.439865E0,1.0990155E0,9.207283E0,2.6042576E1,2.4018722E0,5.239094E0,7.9621844E2,1.8989908E0,1.3334425E2,7.8989606E0,7.5333257E0,5.4636087E0,1.5934367E1,3.620381E0,1.5851672E1,2.046902E1,6.288273E0,3.0193996E0,1.5990376E1,2.2258956E0,1.2139695E0,1.6552743E0,7.552009E0,4.481679E0,2.1560896E1,1.0316211E0,4.207473E0,7.331451E1,7.2290393E2],"tree_param":{"num_deleted":"0","num_feature":"15","num_nodes":"51","size_leaf_vector":"0"}},{"base_weights":[7.8527653E-1,-3.4684452E-1,1.0104618E0,-7.043331E-1,1.0271538E0,5.444844E-1,1.2258555E0,-1.0120996E0,5.631505E-1,1.6858903E-1,1.0694355E0,2.5163831E-2,1.167429E0,-1.0773512E0,-2.9444236E-1,-5.241095E-1,8.4366214E-1,3.9835158E-1,-1.9346842E-1,-5.416928E-1,1.0144218E0,-9.948175E-2,1.1887969E0,-1.1096414E0,2.0950671E-2,4.0831527E-1,-5.551207E-1,-5.989082E-1,-5.5118848E-2,7.287133E-2,9.459458E-1,7.722587E-2,-1.0861033E0,2.947323E-1,1.110615E0],"categories":[],"categories_nodes":[],"categories_segments":[],"categories_sizes":[],"default_left":[true,true,true,true,true,true,false,true,false,true,false,true,false,true,false,false,false,false,false,true,false,false,false,false,false,false,false,false,false,false,false,false,false,false,false],"id":18,"left_children":[1,3,5,7,9,11,-1,13,15,17,-1,19,21,23,25,27,29,-1,-1,31,33,-1,-1,-1,-1,-1,-1,-1,-1,-1,-1,-1,-1,-1,-1],"loss_changes":[2.8629095E2,9.639903E1,9.0228455E1,6.2478447E1,5.880928E-1,9.8098434E1,0E0,4.2572174E0,1.2299145E1,1.0393302E0,0E0,9.848671E1,4.3260345E0,4.106018E0,4.298977E0,1.8110704E-1,1.8793697E0,0E0,0E0,3.808849E1,2.7893677E0,0E0,0E0,0E0,0E0,0E0,0E0,0E0,0E0,0E0,0E0,0E0,0E0,0E0,0E0],"parents":[2147483647,0,0,1,1,2,2,3,3,4,4,5,5,7,7,8,8,9,9,11,11,12,12,13,13,14,14,15,15,16,16,19,19,20,20],"right_children":[2,4,6,8,10,12,-1,14,16,18,-1,20,22,24,26,28,30,-1,-1,32,34,-1,-1,-1,-1,-1,-1,-1,-1,-1,-1,-1,-1,-1,-1],"split_conditions":[6.7550015E-1,8.2228756E-1,8.570028E-1,5E-1,8.4373546E-1,5E-1,6.1292775E-2,9.705882E-1,5.092874E-1,8.3379626E-1,5.3471774E-2,8.2539684E-1,2.6785713E-1,9.061583E-1,8.533621E-1,1.2307703E0,4.6606335E-1,1.991758E-2,-9.673421E-3,5E-2,7.479557E-1,-4.9740872E-3,5.9439845E-2,-5.548207E-2,1.0475336E-3,2.0415764E-2,-2.7756035E-2,-2.9945409E-2,-2.7559425E-3,3.6435665E-3,4.729729E-2,3.8612937E-3,-5.4305166E-2,1.4736615E-2,5.5530753E-2],"split_indices":[12,2,12,4,2,4,0,10,11,2,0,0,10,14,13,10,3,0,0,7,13,0,0,0,0,0,0,0,0,0,0,0,0,0,0],"split_type":[0,0,0,0,0,0,0,0,0,0,0,0,0,0,0,0,0,0,0,0,0,0,0,0,0,0,0,0,0,0,0,0,0,0,0],"sum_hessian":[1.1111138E3,1.8389226E2,9.2722156E2,1.4785902E2,3.6033222E1,2.9868753E2,6.2853406E2,1.19781494E2,2.8077532E1,2.8616366E0,3.3171585E1,1.6572888E2,1.3295865E2,1.0750113E2,1.228037E1,4.8678346E0,2.3209698E1,1.4440306E0,1.417606E0,1.0679576E2,5.893312E1,1.9021356E0,1.3105652E2,1.0438071E2,3.120421E0,2.5565188E0,9.723851E0,3.0037014E0,1.8641332E0,3.7221885E0,1.9487509E1,5.198585E1,5.4809906E1,9.343982E0,4.9589138E1],"tree_param":{"num_deleted":"0","num_feature":"15","num_nodes":"35","size_leaf_vector":"0"}},{"base_weights":[7.7495664E-1,-4.616832E-1,1.0649345E0,-7.1827775E-1,9.1089E-1,4.7793955E-1,1.1691436E0,-9.477706E-1,2.3776539E-1,3.204108E-2,9.5920324E-1,6.180727E-2,9.8357975E-1,7.04872E-1,1.193119E0,-1.0328767E0,-3.1689212E-1,6.824778E-1,-5.237963E-1,9.7456634E-1,7.769356E-2,-2.4649863E-1,8.249451E-1,1.0209326E0,-1.528234E-1,-3.7308988E-1,9.450914E-1,-1.0452023E0,8.2301356E-2,4.4329002E-1,-6.7416775E-1,-2.6296955E-1,7.778805E-1,-7.002495E-1,3.5745744E-2,1.9095849E-1,-6.8267995E-1,9.392994E-1,1.6996258E-1,1.7239291E-2,1.0546126E0,-8.1341255E-1,3.0682823E-1,8.81548E-2,9.745313E-1],"categories":[],"categories_nodes":[],"categories_segments":[],"categories_sizes":[],"default_left":[true,true,true,true,false,false,false,false,true,false,true,true,true,true,false,true,true,false,false,false,false,true,true,false,false,true,true,false,false,false,false,false,false,false,false,false,false,false,false,false,false,false,false,false,false],"id":19,"left_children":[1,3,5,7,9,11,13,15,17,-1,19,21,23,25,-1,27,29,31,33,-1,-1,35,37,39,-1,41,43,-1,-1,-1,-1,-1,-1,-1,-1,-1,-1,-1,-1,-1,-1,-1,-1,-1,-1],"loss_changes":[3.9190424E2,7.7153275E1,5.1112183E1,4.0516876E1,1.342802E0,2.9431244E1,4.086914E0,6.190674E0,1.49112425E1,0E0,7.150078E-2,2.0511002E1,3.4739609E0,1.4399227E1,0E0,2.1652832E0,8.159567E0,3.4252806E0,1.8149543E0,0E0,0E0,1.26468935E1,1.0736637E0,2.0081482E0,0E0,4.983483E0,6.1289597E-1,0E0,0E0,0E0,0E0,0E0,0E0,0E0,0E0,0E0,0E0,0E0,0E0,0E0,0E0,0E0,0E0,0E0,0E0],"parents":[2147483647,0,0,1,1,2,2,3,3,4,4,5,5,6,6,7,7,8,8,10,10,11,11,12,12,13,13,15,15,16,16,17,17,18,18,21,21,22,22,23,23,25,25,26,26],"right_children":[2,4,6,8,10,12,14,16,18,-1,20,22,24,26,-1,28,30,32,34,-1,-1,36,38,40,-1,42,44,-1,-1,-1,-1,-1,-1,-1,-1,-1,-1,-1,-1,-1,-1,-1,-1,-1,-1],"split_conditions":[4.599359E-1,8.20202E-1,7.7097905E-1,9.705882E-1,3.0809793E-1,9.8275864E-1,3.858561E-1,9.79452E-1,4.761905E-2,1.602054E-3,6.111111E-1,8.2565653E-1,8.150183E-1,8.2789564E-1,5.9655953E-2,8.65E-1,2.3255814E-2,7.994318E-1,9.111111E-1,4.8728317E-2,3.884678E-3,3.448276E-2,7.477314E-1,8.4783494E-1,-7.64117E-3,8.8611114E-1,8.697479E-1,-5.2260112E-2,4.115068E-3,2.2164501E-2,-3.370839E-2,-1.3148478E-2,3.8894024E-2,-3.5012476E-2,1.7872872E-3,9.547925E-3,-3.4133997E-2,4.696497E-2,8.498129E-3,8.619646E-4,5.273063E-2,-4.067063E-2,1.5341411E-2,4.40774E-3,4.8726566E-2],"split_indices":[9,2,9,10,11,11,11,11,7,0,6,0,5,12,0,12,5,13,3,0,0,7,5,13,0,2,9,0,0,0,0,0,0,0,0,0,0,0,0,0,0,0,0,0,0],"split_type":[0,0,0,0,0,0,0,0,0,0,0,0,0,0,0,0,0,0,0,0,0,0,0,0,0,0,0,0,0,0,0,0,0,0,0,0,0,0,0,0,0,0,0,0,0],"sum_hessian":[1.0810233E3,2.0477574E2,8.7624756E2,1.7453156E2,3.0244186E1,1.3631815E2,7.399294E2,1.407811E2,3.3750458E1,2.009322E0,2.8234863E1,7.785562E1,5.8462524E1,4.3798367E1,6.9613104E2,1.2123971E2,1.9541388E1,2.163561E1,1.2114847E1,2.7232428E1,1.0024359E0,5.7863766E1,1.999186E1,5.7093937E1,1.3685892E0,7.477624E0,3.632074E1,1.2022467E2,1.0150366E0,5.8629417E0,1.3678446E1,1.1781356E0,2.0457476E1,8.254442E0,3.860405E0,3.029309E1,2.7570675E1,1.5172462E1,4.8193965E0,2.0990734E0,5.499486E1,3.9426343E0,3.5349898E0,1.8696938E0,3.4451046E1],"tree_param":{"num_deleted":"0","num_feature":"15","num_nodes":"45","size_leaf_vector":"0"}},{"base_weights":[7.5057966E-1,1.7485556E-1,1.1868812E0,-3.0205402E-1,1.0404685E0,1.8786187E-1,1.1910354E0,-7.4726844E-1,1.0182015E0,4.6643883E-2,1.1046215E0,-2.4159425E-1,4.1087738E-1,-8.784768E-1,4.055906E-1,1.8517433E-1,1.1074513E0,-4.9158582E-1,5.8718514E-1,-1.565174E-1,1.1188583E0,-5.017906E-1,-1.1419386E0,9.1825795E-1,-2.0643999E-1,6.0229343E-1,-4.1896194E-1,2.401919E-1,1.1757067E0,-6.2542206E-1,1.1907844E-1,3.519366E-1,1.1497635E0],"categories":[],"categories_nodes":[],"categories_segments":[],"categories_sizes":[],"default_left":[true,true,true,true,false,true,false,true,true,true,false,false,false,true,true,true,true,false,false,false,true,false,false,false,false,false,false,false,false,false,false,false,false],"id":20,"left_children":[1,3,5,7,9,11,-1,13,15,17,19,-1,-1,21,23,25,27,29,-1,-1,31,-1,-1,-1,-1,-1,-1,-1,-1,-1,-1,-1,-1],"loss_changes":[2.6046362E2,1.8927173E2,1.3355713E0,1.7840169E2,1.0111984E1,1.2994276E0,0E0,3.5818222E1,4.7010956E0,5.831346E0,3.6147308E0,0E0,0E0,1.734079E1,9.235394E0,4.652933E0,2.646759E0,1.2124677E0,0E0,0E0,1.5669098E0,0E0,0E0,0E0,0E0,0E0,0E0,0E0,0E0,0E0,0E0,0E0,0E0],"parents":[2147483647,0,0,1,1,2,2,3,3,4,4,5,5,7,7,8,8,9,9,10,10,13,13,14,14,15,15,16,16,17,17,20,20],"right_children":[2,4,6,8,10,12,-1,14,16,18,20,-1,-1,22,24,26,28,30,-1,-1,32,-1,-1,-1,-1,-1,-1,-1,-1,-1,-1,-1,-1],"split_conditions":[8.55522E-1,5E-1,3.5690653E-1,8.7026644E-1,6.934271E-1,5E-1,5.955177E-2,7.8876984E-1,7.8431374E-1,7.049812E-1,4.0681818E-1,-1.2079713E-2,2.054387E-2,3.448276E-2,8.802854E-1,6.067867E-1,9.0399384E-1,5.08547E-1,2.9359257E-2,-7.82587E-3,5.711075E-1,-2.508953E-2,-5.709693E-2,4.59129E-2,-1.0322E-2,3.0114671E-2,-2.0948097E-2,1.20095955E-2,5.8785338E-2,-3.1271104E-2,5.9539224E-3,1.7596832E-2,5.7488173E-2],"split_indices":[12,4,8,8,13,4,0,0,1,1,14,0,0,7,1,2,8,3,0,0,1,0,0,0,0,0,0,0,0,0,0,0,0],"split_type":[0,0,0,0,0,0,0,0,0,0,0,0,0,0,0,0,0,0,0,0,0,0,0,0,0,0,0,0,0,0,0,0,0],"sum_hessian":[1.0360526E3,4.4967944E2,5.8637317E2,2.920369E2,1.5764253E2,3.3852406E0,5.829879E2,2.2001408E2,7.202281E1,1.0082685E1,1.4755984E2,1.0147067E0,2.3705337E0,1.9860106E2,2.1413033E1,8.457483E0,6.3565327E1,5.279049E0,4.8036366E0,1.0893793E0,1.4647047E2,8.771417E1,1.1088688E2,1.0291024E1,1.1122007E1,5.0121512E0,3.4453316E0,6.286292E0,5.7279034E1,4.230941E0,1.0481079E0,8.073057E0,1.3839742E2],"tree_param":{"num_deleted":"0","num_feature":"15","num_nodes":"33","size_leaf_vector":"0"}},{"base_weights":[7.538533E-1,-4.7327682E-1,1.0433329E0,-8.241246E-1,7.0020074E-1,5.067792E-1,1.1448028E0,-1.0705225E0,6.3984805E-1,-5.274635E-1,8.6681384E-1,9.0896904E-2,1.0281291E0,1.6528416E-1,1.1522294E0,-1.1122249E0,2.8789306E-1,-8.457945E-2,9.407325E-1,2.4511927E-1,1.0129131E0,-4.1909724E-1,9.05913E-1,2.3267483E-2,1.0541339E0,-2.1495673E-1,4.6048155E-1,5.665277E-1,1.169386E0,-1.1446414E0,-3.5360616E-1,-9.11023E-2,4.206848E-1,-7.018857E-1,4.789988E-1,-3.0941087E-1,6.7817867E-1,9.714302E-2,1.0325121E0,-6.615097E-1,4.1692522E-1,2.471697E-1,1.0243452E0,9.270969E-3,1.0762798E0,1.811273E-1,-4.0984198E-1,-2.3567104E-1,7.095289E-1,4.638039E-1,1.1768265E0],"categories":[],"categories_nodes":[],"categories_segments":[],"categories_sizes":[],"default_left":[true,true,true,true,false,true,true,true,true,false,false,true,false,true,true,true,true,false,false,true,true,true,true,false,false,true,false,false,false,false,false,false,false,false,false,false,false,false,false,false,false,false,false,false,false,false,false,false,false,false,false],"id":21,"left_children":[1,3,5,7,9,11,13,15,17,-1,19,21,23,25,27,29,31,33,-1,35,37,39,41,-1,43,45,-1,47,49,-1,-1,-1,-1,-1,-1,-1,-1,-1,-1,-1,-1,-1,-1,-1,-1,-1,-1,-1,-1,-1,-1],"loss_changes":[3.610598E2,8.3629745E1,4.16532E1,5.8714462E1,1.2072134E1,2.9696587E1,4.0251465E0,9.139038E0,5.8929577E0,0E0,2.7566452E0,3.6344414E1,1.4778214E0,1.7280588E0,3.5028687E0,1.1763611E0,5.9098667E-1,5.8508596E0,0E0,4.644648E0,1.0954285E-1,1.2402469E1,1.3459625E0,0E0,1.3289642E0,1.004918E0,0E0,4.162879E0,7.056885E-1,0E0,0E0,0E0,0E0,0E0,0E0,0E0,0E0,0E0,0E0,0E0,0E0,0E0,0E0,0E0,0E0,0E0,0E0,0E0,0E0,0E0,0E0],"parents":[2147483647,0,0,1,1,2,2,3,3,4,4,5,5,6,6,7,7,8,8,10,10,11,11,12,12,13,13,14,14,15,15,16,16,17,17,19,19,20,20,21,21,22,22,24,24,25,25,27,27,28,28],"right_children":[2,4,6,8,10,12,14,16,18,-1,20,22,24,26,28,30,32,34,-1,36,38,40,42,-1,44,46,-1,48,50,-1,-1,-1,-1,-1,-1,-1,-1,-1,-1,-1,-1,-1,-1,-1,-1,-1,-1,-1,-1,-1,-1],"split_conditions":[4.599359E-1,5E-1,7.7097905E-1,8.5829544E-1,6.9755757E-1,5E-1,5.297798E-1,9.006568E-1,9.2582417E-1,-2.6373176E-2,4.8076922E-1,8.731388E-1,3.8181818E-1,9.5E-1,7.1339285E-1,8.227236E-1,7.8571427E-1,9.666667E-1,4.7036625E-2,6.857997E-1,4.1666668E-2,8.9444447E-1,9.314554E-1,1.1633742E-3,6.2260103E-1,8.405435E-1,2.3024078E-2,7.013192E-1,4.8418605E-1,-5.723207E-2,-1.7680308E-2,-4.555115E-3,2.103424E-2,-3.5094287E-2,2.3949942E-2,-1.5470544E-2,3.3908933E-2,4.857151E-3,5.1625606E-2,-3.3075485E-2,2.084626E-2,1.2358486E-2,5.1217258E-2,4.6354844E-4,5.381399E-2,9.056365E-3,-2.04921E-2,-1.1783552E-2,3.5476446E-2,2.3190195E-2,5.8841325E-2],"split_indices":[9,4,9,1,13,4,1,8,8,0,3,8,14,12,12,8,10,10,0,1,9,14,8,0,13,12,0,13,13,0,0,0,0,0,0,0,0,0,0,0,0,0,0,0,0,0,0,0,0,0,0],"split_type":[0,0,0,0,0,0,0,0,0,0,0,0,0,0,0,0,0,0,0,0,0,0,0,0,0,0,0,0,0,0,0,0,0,0,0,0,0,0,0,0,0,0,0,0,0,0,0,0,0,0,0],"sum_hessian":[1.0044636E3,1.9111887E2,8.133447E2,1.4827574E2,4.2843124E1,1.3411922E2,6.792255E2,1.2806516E2,2.0210587E1,3.8256185E0,3.9017506E1,7.787214E1,5.6247074E1,5.986043E0,6.7323944E2,1.2512993E2,2.93523E0,6.9857526E0,1.32248335E1,9.972105E0,2.90454E1,4.939331E1,2.847883E1,1.6578838E0,5.458919E1,3.210164E0,2.7758791E0,2.4000498E1,6.4923895E2,1.1756214E2,7.5677876E0,1.1688874E0,1.7663426E0,2.7483478E0,4.237405E0,4.998794E0,4.9733114E0,1.2326355E0,2.7812765E1,3.9099697E1,1.0293611E1,6.6919513E0,2.1786879E1,1.2802198E0,5.330897E1,1.1750245E0,2.0351396E0,3.14087E0,2.0859627E1,1.0079485E1,6.391595E2],"tree_param":{"num_deleted":"0","num_feature":"15","num_nodes":"51","size_leaf_vector":"0"}},{"base_weights":[7.246064E-1,-4.7731093E-1,1.0059927E0,-7.48076E-1,9.141502E-1,4.1290578E-1,1.1159394E0,-9.826588E-1,4.3845233E-3,1.05035216E-1,1.0090147E0,-8.301064E-2,9.993889E-1,3.6303994E-1,1.1357745E0,-1.0094174E0,6.256987E-2,6.0740966E-1,-5.371994E-1,3.963663E-1,-2.5790668E-1,-5.3557867E-1,3.721105E-1,1.6244124E-1,1.042592E0,-2.0579012E-1,6.9869184E-1,9.248735E-1,1.1763797E0,1.577042E-2,-1.0308535E0,3.3813968E-1,-2.600996E-1,-4.7577195E-2,7.230054E-1,-7.472882E-1,3.9299494E-1,3.537225E-1,-6.0481155E-1,6.2188566E-1,-2.3985808E-1,3.467033E-1,-1.8066749E-1,1.0679972E0,1.5539315E-1,3.718994E-1,-6.447315E-1,-8.828768E-2,7.832497E-1,-6.469851E-2,9.8243135E-1],"categories":[],"categories_nodes":[],"categories_segments":[],"categories_sizes":[],"default_left":[true,true,true,false,true,true,true,true,true,true,false,false,true,true,true,true,true,false,true,false,false,true,true,true,true,false,false,false,false,false,false,false,false,false,false,false,false,false,false,false,false,false,false,false,false,false,false,false,false,false,false],"id":22,"left_children":[1,3,5,7,9,11,13,15,17,19,-1,21,23,25,27,29,31,33,35,-1,-1,37,39,41,43,45,47,49,-1,-1,-1,-1,-1,-1,-1,-1,-1,-1,-1,-1,-1,-1,-1,-1,-1,-1,-1,-1,-1,-1,-1],"loss_changes":[3.3279382E2,7.451849E1,4.94187E1,2.8391365E1,2.0022984E0,3.8801727E1,7.887451E0,3.743309E0,1.573211E1,1.4672992E0,0E0,1.66772E1,1.3535881E0,5.387107E0,9.863281E-2,2.7135696E0,1.1303891E0,1.8964157E0,6.4321327E0,0E0,0E0,3.5460892E0,6.998815E0,8.764889E-1,4.5368195E-1,4.4790053E0,1.4446983E0,7.5972824E0,0E0,0E0,0E0,0E0,0E0,0E0,0E0,0E0,0E0,0E0,0E0,0E0,0E0,0E0,0E0,0E0,0E0,0E0,0E0,0E0,0E0,0E0,0E0],"parents":[2147483647,0,0,1,1,2,2,3,3,4,4,5,5,6,6,7,7,8,8,9,9,11,11,12,12,13,13,14,14,15,15,16,16,17,17,18,18,21,21,22,22,23,23,24,24,25,25,26,26,27,27],"right_children":[2,4,6,8,10,12,14,16,18,20,-1,22,24,26,28,30,32,34,36,-1,-1,38,40,42,44,46,48,50,-1,-1,-1,-1,-1,-1,-1,-1,-1,-1,-1,-1,-1,-1,-1,-1,-1,-1,-1,-1,-1,-1,-1],"split_conditions":[4.6027744E-1,8.696944E-1,7.7097905E-1,9.791666E-1,7.7773035E-1,8.4412956E-1,5.8178437E-1,8.22963E-1,1E-1,4.4456977E-1,5.045074E-2,6.547619E-1,7.098918E-1,8.617857E-1,8.55522E-1,7.151979E-2,5.4590607E-1,8.7086725E-1,8.2228756E-1,1.9818315E-2,-1.2895334E-2,4.6291208E-1,1.3333334E-1,5.235294E-1,8.610039E-1,8.4323037E-1,7.1318287E-1,6.375096E-1,5.8818985E-2,7.88521E-4,-5.1542677E-2,1.6906984E-2,-1.300498E-2,-2.3788598E-3,3.6150273E-2,-3.7364412E-2,1.9649748E-2,1.7686127E-2,-3.0240579E-2,3.1094283E-2,-1.1992904E-2,1.7335165E-2,-9.0333745E-3,5.339986E-2,7.7696578E-3,1.859497E-2,-3.2236576E-2,-4.4143843E-3,3.9162483E-2,-3.2349254E-3,4.912157E-2],"split_indices":[9,8,9,11,1,8,1,0,5,0,0,3,1,12,12,9,12,13,2,0,0,9,7,5,5,13,13,13,0,0,0,0,0,0,0,0,0,0,0,0,0,0,0,0,0,0,0,0,0,0,0],"split_type":[0,0,0,0,0,0,0,0,0,0,0,0,0,0,0,0,0,0,0,0,0,0,0,0,0,0,0,0,0,0,0,0,0,0,0,0,0,0,0,0,0,0,0,0,0,0,0,0,0,0,0],"sum_hessian":[9.719072E2,1.8371272E2,7.881945E2,1.557225E2,2.7990213E1,1.2698342E2,6.612111E2,1.1754707E2,3.8175438E1,4.0429897E0,2.3947224E1,7.112992E1,5.58535E1,1.9449879E1,6.417612E2,1.1477992E2,2.7671497E0,1.7775566E1,2.0399872E1,1.9873177E0,2.055672E0,3.5221798E1,3.5908123E1,3.9098656E0,5.1943634E1,7.9357E0,1.1514179E1,1.2280502E2,5.189562E2,2.37789E0,1.1240203E2,1.3632066E0,1.4039432E0,3.1078742E0,1.4667692E1,1.7443365E1,2.9565067E0,1.0600139E0,3.416178E1,2.5442665E1,1.0465459E1,2.5096884E0,1.4001774E0,4.950706E1,2.4365742E0,3.7560506E0,4.1796494E0,1.0957248E0,1.0418454E1,6.7161603E0,1.1608886E2],"tree_param":{"num_deleted":"0","num_feature":"15","num_nodes":"51","size_leaf_vector":"0"}},{"base_weights":[7.0693433E-1,-2.777045E-1,1.0568082E0,-6.250715E-1,6.7484474E-1,2.8261876E-1,1.0895696E0,-8.1105804E-1,4.0568146E-1,7.5823314E-2,1.0568422E0,5.7816625E-1,-6.5910596E-1,3.3991918E-1,1.1089977E0,-9.5454335E-1,-1.5578513E-1,6.863234E-1,-2.6857302E-1,-5.030649E-1,5.255809E-1,4.392434E-3,8.872061E-1,-7.529866E-1,-2.424399E-3,5.477448E-1,-2.2063853E-1,6.3532746E-1,1.1359022E0,3.9801735E-2,-9.738191E-1,5.664874E-1,-5.891509E-1,7.14628E-1,4.1285835E-2,-5.201674E-1,2.5254184E-2,2.094375E-1,-7.1289015E-1,-2.1389823E-2,8.682398E-1,2.856383E-1,-5.053344E-1,9.1516733E-1,8.779632E-2,-2.5364464E-2,6.247417E-1,-6.2454337E-1,3.785837E-1,-1.9779138E-1,1.0066482E0],"categories":[],"categories_nodes":[],"categories_segments":[],"categories_sizes":[],"default_left":[true,true,true,true,true,true,true,false,true,false,false,false,true,true,false,true,true,true,true,true,true,false,true,false,false,false,true,true,false,false,false,false,false,false,false,false,false,false,false,false,false,false,false,false,false,false,false,false,false,false,false],"id":23,"left_children":[1,3,5,7,9,11,13,15,17,19,-1,21,23,25,27,29,31,33,35,37,39,41,43,-1,-1,45,47,49,-1,-1,-1,-1,-1,-1,-1,-1,-1,-1,-1,-1,-1,-1,-1,-1,-1,-1,-1,-1,-1,-1,-1],"loss_changes":[3.3064407E2,8.630989E1,1.6368225E1,3.789048E1,1.5709721E1,1.176251E1,7.955261E0,1.447245E1,7.0209084E0,9.862138E0,0E0,5.2326584E0,6.564598E-1,3.432549E0,4.7561035E0,2.7197342E0,1.2638513E1,2.936926E-1,1.0316582E0,3.2725792E0,4.010926E0,2.928524E0,2.8008461E-2,0E0,0E0,9.241352E-1,3.6341116E0,1.5418631E1,0E0,0E0,0E0,0E0,0E0,0E0,0E0,0E0,0E0,0E0,0E0,0E0,0E0,0E0,0E0,0E0,0E0,0E0,0E0,0E0,0E0,0E0,0E0],"parents":[2147483647,0,0,1,1,2,2,3,3,4,4,5,5,6,6,7,7,8,8,9,9,11,11,12,12,13,13,14,14,15,15,16,16,17,17,18,18,19,19,20,20,21,21,22,22,25,25,26,26,27,27],"right_children":[2,4,6,8,10,12,14,16,18,20,-1,22,24,26,28,30,32,34,36,38,40,42,44,-1,-1,46,48,50,-1,-1,-1,-1,-1,-1,-1,-1,-1,-1,-1,-1,-1,-1,-1,-1,-1,-1,-1,-1,-1,-1,-1],"split_conditions":[6.262255E-1,7.8404653E-1,6.0213697E-1,9.061583E-1,9.0399384E-1,1.891892E-1,6.717949E-1,9.79452E-1,4.761905E-2,7.377173E-1,5.284211E-2,8.8846153E-1,8.775E-1,5.9934604E-1,3.8503775E-1,7.151979E-2,2.3255814E-2,4.6398225E-1,5.7976186E-1,2.761438E-1,8.2228756E-1,8.5057694E-1,2.1637428E-1,-3.764933E-2,-1.2121995E-4,6.796146E-1,8.395468E-1,8.708791E-1,5.679511E-2,1.9900869E-3,-4.8690956E-2,2.832437E-2,-2.9457545E-2,3.57314E-2,2.0642919E-3,-2.6008371E-2,1.2627093E-3,1.0471876E-2,-3.564451E-2,-1.0694911E-3,4.3411992E-2,1.42819155E-2,-2.526672E-2,4.5758367E-2,4.3898164E-3,-1.2682233E-3,3.1237084E-2,-3.122717E-2,1.8929185E-2,-9.889569E-3,5.033241E-2],"split_indices":[9,1,1,14,8,5,9,11,7,11,0,14,14,5,11,9,5,0,2,9,2,13,6,0,0,13,0,8,0,0,0,0,0,0,0,0,0,0,0,0,0,0,0,0,0,0,0,0,0,0,0],"split_type":[0,0,0,0,0,0,0,0,0,0,0,0,0,0,0,0,0,0,0,0,0,0,0,0,0,0,0,0,0,0,0,0,0,0,0,0,0,0,0,0,0,0,0,0,0,0,0,0,0,0,0],"sum_hessian":[9.505217E2,2.4947202E2,7.0104974E2,1.8406706E2,6.5404945E1,3.041604E1,6.7063367E2,1.5683403E2,2.7233047E1,2.7801327E1,3.7603622E1,2.461975E1,5.7962914E0,1.9277452E1,6.513562E2,1.2678772E2,3.0046303E1,1.916612E1,8.066927E0,1.1896535E1,1.5904793E1,1.0393639E1,1.422611E1,4.4297366E0,1.3665551E0,1.41468315E1,5.1306214E0,4.1623234E1,6.09733E2,2.309829E0,1.2447789E2,1.0691435E1,1.9354866E1,1.78437E1,1.3224204E0,2.2708697E0,5.796057E0,2.7085087E0,9.188025E0,7.931689E0,7.9731035E0,8.114513E0,2.2791245E0,1.3045785E1,1.1803252E0,2.0726213E0,1.207421E1,2.938588E0,2.1920338E0,1.3552539E1,2.8070694E1],"tree_param":{"num_deleted":"0","num_feature":"15","num_nodes":"51","size_leaf_vector":"0"}},{"base_weights":[7.005084E-1,1.4729449E-1,1.1333842E0,-2.3220037E-1,1.039574E0,3.0805987E-1,1.1393683E0,-6.585188E-1,5.229344E-1,1.7126606E-1,1.0583893E0,-1.8246949E-1,4.742522E-1,-9.3269116E-1,9.866959E-2,9.034899E-1,-3.0753785E-1,-1.5893108E-1,3.2773745E-1,-1.2148906E-1,-9.5382833E-1,5.696673E-1,-6.0816854E-1,5.0133526E-2,9.65212E-1,-5.605471E-1,4.5799875E-1],"categories":[],"categories_nodes":[],"categories_segments":[],"categories_sizes":[],"default_left":[true,true,true,false,false,true,false,true,true,true,false,false,false,true,true,false,true,false,false,false,false,false,false,false,false,false,false],"id":24,"left_children":[1,3,5,7,9,11,-1,13,15,17,-1,-1,-1,19,21,23,25,-1,-1,-1,-1,-1,-1,-1,-1,-1,-1],"loss_changes":[2.1963474E2,1.4000325E2,7.9229736E-1,9.561825E1,1.1068268E0,1.2940011E0,0E0,3.962094E1,3.5532295E1,7.0367324E-1,0E0,0E0,0E0,1.803421E0,1.9932203E1,3.7270508E0,8.581598E0,0E0,0E0,0E0,0E0,0E0,0E0,0E0,0E0,0E0,0E0],"parents":[2147483647,0,0,1,1,2,2,3,3,4,4,5,5,7,7,8,8,9,9,13,13,14,14,15,15,16,16],"right_children":[2,4,6,8,10,12,-1,14,16,18,-1,-1,-1,20,22,24,26,-1,-1,-1,-1,-1,-1,-1,-1,-1,-1],"split_conditions":[8.55669E-1,8.6425066E-1,3.7617925E-1,9.441323E-1,3.3566433E-1,4.5E-1,5.6968417E-2,6.7543864E-1,4.453241E-2,6.300752E-1,5.2919466E-2,-9.123474E-3,2.371261E-2,1.0818714E-1,5E-2,9.6093357E-1,7.908547E-1,-7.946554E-3,1.6386872E-2,-6.0744532E-3,-4.7691416E-2,2.8483365E-2,-3.0408427E-2,2.5066764E-3,4.82606E-2,-2.8027356E-2,2.2899939E-2],"split_indices":[12,8,8,11,10,10,0,9,5,9,0,0,0,9,7,11,2,0,0,0,0,0,0,0,0,0,0],"split_type":[0,0,0,0,0,0,0,0,0,0,0,0,0,0,0,0,0,0,0,0,0,0,0,0,0,0,0],"sum_hessian":[9.156449E2,4.0489352E2,5.1075137E2,2.8666925E2,1.1822428E2,5.565442E0,5.0518594E2,1.8363571E2,1.0303354E2,3.5787838E0,1.146455E2,1.2844833E0,4.280959E0,1.3396797E2,4.9667736E1,7.035462E1,3.2678917E1,1.1253632E0,2.4534206E0,4.258881E0,1.2970909E2,3.0388704E1,1.9279032E1,5.3566008E0,6.4998024E1,2.5567678E1,7.1112375E0],"tree_param":{"num_deleted":"0","num_feature":"15","num_nodes":"27","size_leaf_vector":"0"}},{"base_weights":[6.8155867E-1,1.464801E-1,1.1210039E0,-2.2563699E-1,1.0182644E0,3.5591915E-1,1.1269909E0,-7.474855E-1,8.3294326E-1,1.4963953E-1,1.0372617E0,-1.18183926E-1,4.9609122E-1,-8.468575E-1,4.1870555E-1,-4.728447E-1,1.0075984E0,4.22831E-1,-2.8385815E-1,3.367663E-1,1.083312E0,-9.158536E-1,2.0052825E-1,-4.9637654E-1,6.562266E-1,-7.3525435E-1,1.6742815E-1,-4.668324E-2,1.0529956E0,-1.3521072E-1,5.957707E-1],"categories":[],"categories_nodes":[],"categories_segments":[],"categories_sizes":[],"default_left":[true,true,true,true,false,true,false,true,false,false,false,false,false,true,false,true,true,false,false,true,false,false,false,false,false,false,false,false,false,false,false],"id":25,"left_children":[1,3,5,7,9,11,-1,13,15,17,19,-1,-1,21,23,25,27,-1,-1,29,-1,-1,-1,-1,-1,-1,-1,-1,-1,-1,-1],"loss_changes":[2.1153586E2,1.3512746E2,2.6239014E-1,1.6527039E2,1.2776489E0,1.0342882E0,0E0,2.4863396E1,2.502658E1,1.607539E0,2.0774841E0,0E0,0E0,1.4306152E1,5.7563763E0,3.1553397E0,4.513756E0,0E0,0E0,2.2017455E0,0E0,0E0,0E0,0E0,0E0,0E0,0E0,0E0,0E0,0E0,0E0],"parents":[2147483647,0,0,1,1,2,2,3,3,4,4,5,5,7,7,8,8,9,9,10,10,13,13,14,14,15,15,16,16,19,19],"right_children":[2,4,6,8,10,12,-1,14,16,18,20,-1,-1,22,24,26,28,-1,-1,30,-1,-1,-1,-1,-1,-1,-1,-1,-1,-1,-1],"split_conditions":[8.55522E-1,8.5215545E-1,3.7617925E-1,5E-1,4.2222223E-1,4.5E-1,5.6349546E-2,8.22963E-1,4.8242426E-1,5.694444E-1,6.356241E-1,-5.9091966E-3,2.480456E-2,9.75E-1,6.017647E-1,3.8808373E-1,4.5008498E-1,2.114155E-2,-1.4192908E-2,8.977778E-1,5.41656E-2,-4.579268E-2,1.0026413E-2,-2.4818828E-2,3.281133E-2,-3.6762718E-2,8.371408E-3,-2.3341621E-3,5.2649777E-2,-6.760536E-3,2.9788537E-2],"split_indices":[12,8,8,4,14,10,0,0,11,3,13,0,0,14,13,5,12,0,0,0,0,0,0,0,0,0,0,0,0,0,0],"split_type":[0,0,0,0,0,0,0,0,0,0,0,0,0,0,0,0,0,0,0,0,0,0,0,0,0,0,0,0,0,0,0],"sum_hessian":[8.98117E2,4.079971E2,4.9011993E2,2.885407E2,1.1945638E2,6.1523147E0,4.8396762E2,1.9425043E2,9.4290276E1,3.5066032E0,1.15949776E2,1.5828792E0,4.5694356E0,1.8025952E2,1.3990912E1,1.0116788E1,8.4173485E1,2.226492E0,1.2801112E0,9.71623E0,1.0623354E2,1.6970798E2,1.0551543E1,1.7602404E0,1.2230672E1,6.6497326E0,3.4670553E0,3.4690251E0,8.070446E1,4.2894588E0,5.4267716E0],"tree_param":{"num_deleted":"0","num_feature":"15","num_nodes":"31","size_leaf_vector":"0"}},{"base_weights":[6.710668E-1,-1.865474E-1,1.0330147E0,-5.484813E-1,7.224497E-1,7.552256E-1,1.1255546E0,-8.107289E-1,1.4827739E-1,1.226427E-1,1.0108197E0,7.438617E-2,9.129234E-1,-8.497309E-1,1.5421927E-1,7.067234E-1,-5.8928573E-1,-2.5188348E-1,4.4815856E-1,-6.0289395E-1,8.6595505E-1,-8.3104305E-2,9.760058E-1,-9.442857E-1,-3.8921273E-1,4.6585375E-1,-3.727448E-1,-1.4947842E-1,8.516304E-1,-7.1691585E-1,2.2037843E-1,4.8546532E-1,-5.860109E-1,-2.2407392E-1,6.322816E-1,-8.1523314E-2,-8.404999E-1,4.5046598E-1,-3.967516E-1,-4.7544245E-2,9.8632646E-1],"categories":[],"categories_nodes":[],"categories_segments":[],"categories_sizes":[],"default_left":[true,true,true,false,true,false,false,true,true,true,false,true,true,true,true,true,false,true,false,true,false,false,false,false,false,false,false,false,false,false,false,false,false,false,false,false,false,false,false,false,false],"id":26,"left_children":[1,3,5,7,9,11,-1,13,15,17,-1,19,21,23,25,27,29,31,33,35,-1,37,39,-1,-1,-1,-1,-1,-1,-1,-1,-1,-1,-1,-1,-1,-1,-1,-1,-1,-1],"loss_changes":[2.725866E2,8.881488E1,1.1587769E1,3.5613377E1,1.2754021E1,1.7821884E1,0E0,5.923691E0,2.5405617E1,4.3187184E0,0E0,2.258329E1,9.007103E0,4.0546875E0,2.4562805E0,4.916786E0,3.593112E0,5.738881E0,2.9702666E0,2.5097017E0,0E0,3.029297E0,1.5986252E0,0E0,0E0,0E0,0E0,0E0,0E0,0E0,0E0,0E0,0E0,0E0,0E0,0E0,0E0,0E0,0E0,0E0,0E0],"parents":[2147483647,0,0,1,1,2,2,3,3,4,4,5,5,7,7,8,8,9,9,11,11,12,12,13,13,14,14,15,15,16,16,17,17,18,18,19,19,21,21,22,22],"right_children":[2,4,6,8,10,12,-1,14,16,18,-1,20,22,24,26,28,30,32,34,36,-1,38,40,-1,-1,-1,-1,-1,-1,-1,-1,-1,-1,-1,-1,-1,-1,-1,-1,-1,-1],"split_conditions":[6.717949E-1,7.90724E-1,8.7361974E-1,9.8275864E-1,8.7026644E-1,6.2678576E-1,5.627773E-2,8.9296234E-1,1.9861111E-1,8.6124456E-1,5.0540984E-2,8.596059E-1,5.858358E-1,4.9489796E-1,4.4124633E-1,4.5431036E-1,9.157685E-1,2.3397435E-1,7.5254905E-1,1.9730392E-1,4.3297753E-2,8.456818E-1,6.799844E-1,-4.7214285E-2,-1.9460637E-2,2.3292689E-2,-1.863724E-2,-7.473921E-3,4.258152E-2,-3.5845794E-2,1.1018922E-2,2.4273267E-2,-2.9300544E-2,-1.1203696E-2,3.161408E-2,-4.0761656E-3,-4.2024996E-2,2.2523299E-2,-1.983758E-2,-2.3772123E-3,4.9316324E-2],"split_indices":[9,1,12,11,8,11,0,8,2,1,0,8,1,9,0,12,13,2,13,2,0,13,13,0,0,0,0,0,0,0,0,0,0,0,0,0,0,0,0,0,0],"split_type":[0,0,0,0,0,0,0,0,0,0,0,0,0,0,0,0,0,0,0,0,0,0,0,0,0,0,0,0,0,0,0,0,0,0,0,0,0,0,0,0,0],"sum_hessian":[8.700416E2,2.5893454E2,6.111071E2,1.8661385E2,7.232069E1,1.6415295E2,4.4695416E2,1.3498865E2,5.1625195E1,2.5794603E1,4.6526077E1,3.225495E1,1.3189801E2,1.3031836E2,4.670296E0,2.9499052E1,2.2126144E1,1.2520269E1,1.3274335E1,1.8024582E1,1.4230368E1,7.7615466E0,1.2413646E2,1.03761375E2,2.6556978E1,3.2991114E0,1.3711847E0,4.247052E0,2.5251999E1,1.9608025E1,2.51812E0,3.1980886E0,9.322181E0,2.6208227E0,1.0653512E1,7.7451587E0,1.0279424E1,2.0659328E0,5.695614E0,1.059179E0,1.2307728E2],"tree_param":{"num_deleted":"0","num_feature":"15","num_nodes":"41","size_leaf_vector":"0"}},{"base_weights":[6.707548E-1,-1.0866985E-1,1.0364244E0,-5.1921654E-1,8.625688E-1,4.2794338E-1,1.0629754E0,-8.256119E-1,8.397521E-1,-1.8442835E-1,9.6818477E-1,-9.441661E-2,7.065724E-1,6.999209E-1,1.0988363E0,-9.20555E-1,3.6504072E-1,1.7437585E-1,9.7156674E-1,-4.4243768E-1,3.3758062E-1,2.2066376E-1,1.0400556E0,3.4509233E-1,-5.1936007E-1,-5.0639372E-2,7.5910485E-1,1.8370368E-1,1.0115392E0,7.177676E-2,1.1019242E0,-9.4149494E-1,3.1651005E-1,-4.756696E-2,5.655488E-1,5.332426E-1,-2.6069164E-1,9.9238175E-1,7.087142E-2,-6.023825E-1,1.5145348E-1,-2.6328066E-1,5.286599E-1,6.468059E-2,1.0552226E0,-1.4877799E-1,4.900356E-1,-7.326408E-1,2.4951285E-2,7.843431E-1,6.429136E-2,-3.6143297E-1,4.9332958E-1],"categories":[],"categories_nodes":[],"categories_segments":[],"categories_sizes":[],"default_left":[true,true,true,true,false,false,false,true,false,true,true,false,true,true,false,true,true,true,true,false,false,true,false,false,true,false,true,true,false,false,false,false,false,false,false,false,false,false,false,false,false,false,false,false,false,false,false,false,false,false,false,false,false],"id":27,"left_children":[1,3,5,7,9,11,13,15,17,19,21,23,25,27,29,31,33,35,37,39,-1,41,43,45,47,-1,49,51,-1,-1,-1,-1,-1,-1,-1,-1,-1,-1,-1,-1,-1,-1,-1,-1,-1,-1,-1,-1,-1,-1,-1,-1,-1],"loss_changes":[2.4034186E2,1.1116706E2,6.98468E0,8.471774E1,1.0075821E1,5.039251E0,3.260315E0,1.9965813E1,2.5190945E0,2.3373275E0,2.9482117E0,3.8204067E0,1.0543633E0,9.178917E0,1.1519775E0,5.407425E0,1.4190075E0,2.6373024E0,2.2841263E-1,1.4124392E0,0E0,2.6385775E0,6.676712E-1,1.1305269E0,1.2472756E0,0E0,1.0877037E-1,5.915136E0,0E0,0E0,0E0,0E0,0E0,0E0,0E0,0E0,0E0,0E0,0E0,0E0,0E0,0E0,0E0,0E0,0E0,0E0,0E0,0E0,0E0,0E0,0E0,0E0,0E0],"parents":[2147483647,0,0,1,1,2,2,3,3,4,4,5,5,6,6,7,7,8,8,9,9,10,10,11,11,12,12,13,13,14,14,15,15,16,16,17,17,18,18,19,19,21,21,22,22,23,23,24,24,26,26,27,27],"right_children":[2,4,6,8,10,12,14,16,18,20,22,24,26,28,30,32,34,36,38,40,-1,42,44,46,48,-1,50,52,-1,-1,-1,-1,-1,-1,-1,-1,-1,-1,-1,-1,-1,-1,-1,-1,-1,-1,-1,-1,-1,-1,-1,-1,-1],"split_conditions":[7.2281325E-1,5E-1,6.0213697E-1,8.22963E-1,6.93586E-1,5.801282E-1,4.8074073E-1,9.7619045E-1,8.719444E-1,9.2994505E-1,4.5431036E-1,8.005556E-1,4.839311E-1,9.045454E-1,3.3E-1,8.770833E-1,4.4816053E-1,6.020422E-1,6.978261E-1,5.08547E-1,1.6879031E-2,7.009159E-1,3.4848487E-1,6.30273E-1,8.775E-1,-2.5319688E-3,5.997355E-1,8.538326E-1,5.0576963E-2,3.5888383E-3,5.509621E-2,-4.7074746E-2,1.5825503E-2,-2.378348E-3,2.827744E-2,2.666213E-2,-1.3034582E-2,4.961909E-2,3.543571E-3,-3.0119125E-2,7.572674E-3,-1.3164033E-2,2.6432995E-2,3.2340295E-3,5.2761134E-2,-7.4388995E-3,2.450178E-2,-3.6632042E-2,1.2475642E-3,3.9217155E-2,3.214568E-3,-1.807165E-2,2.4666479E-2],"split_indices":[9,4,1,0,13,3,11,14,14,2,12,13,1,12,14,2,9,12,9,3,0,1,10,10,12,0,1,1,0,0,0,0,0,0,0,0,0,0,0,0,0,0,0,0,0,0,0,0,0,0,0,0,0],"split_type":[0,0,0,0,0,0,0,0,0,0,0,0,0,0,0,0,0,0,0,0,0,0,0,0,0,0,0,0,0,0,0,0,0,0,0,0,0,0,0,0,0,0,0,0,0,0,0,0,0,0,0,0,0],"sum_hessian":[8.3629376E2,2.6818073E2,5.6811304E2,1.9013634E2,7.8044395E1,2.7331583E1,5.407815E2,1.5675618E2,3.3380154E1,6.8094587E0,7.123494E1,1.0657368E1,1.6674215E1,5.783638E1,4.829451E2,1.4622998E2,1.0526194E1,7.439806E0,2.594035E1,5.067131E0,1.7423275E0,8.033268E0,6.320167E1,5.700759E0,4.956609E0,1.093434E0,1.5580781E1,2.4762753E1,3.3073627E1,1.8109893E0,4.811341E2,1.4497069E2,1.2592921E0,4.6896405E0,5.8365536E0,3.4586518E0,3.981154E0,2.4856932E1,1.0834184E0,3.9356945E0,1.1314367E0,3.4065602E0,4.626708E0,1.3707767E0,6.1830894E1,1.2634561E0,4.4373026E0,2.318255E0,2.638354E0,1.4412975E1,1.1678061E0,8.666915E0,1.6095837E1],"tree_param":{"num_deleted":"0","num_feature":"15","num_nodes":"53","size_leaf_vector":"0"}},{"base_weights":[6.7105216E-1,3.1425613E-1,1.0779376E0,-5.630329E-1,8.410195E-1,6.795584E-2,1.1028031E0,-8.7850463E-1,7.3012245E-1,3.413154E-1,1.0609053E0,-3.44453E-1,4.991605E-1,-1.339083E-2,1.1116585E0,-9.7132033E-1,6.503672E-2,-1.5396407E-1,8.1731105E-1,-1.2776308E-1,9.361885E-1,-3.6583073E-2,1.0743285E0,-6.420365E-1,2.7022225E-1,-2.927268E-1,2.763773E-1,2.7791634E-2,-9.841701E-1,-2.7948803E-1,5.159875E-1,-4.0791044E-1,2.2919634E-1,1.5579054E-1,9.427772E-1,5.980359E-1,-9.5391077E-1,9.55212E-1,3.549208E-2,-1.003608E-1,5.692634E-2,1.2947746E-1,1.0817052E0],"categories":[],"categories_nodes":[],"categories_segments":[],"categories_sizes":[],"default_left":[true,true,true,true,true,true,false,true,false,true,true,true,false,true,false,false,true,true,false,true,true,false,true,false,false,false,false,false,false,false,false,false,false,false,false,false,false,false,false,false,false,false,false],"id":28,"left_children":[1,3,5,7,9,11,13,15,17,19,21,23,-1,25,-1,27,29,31,33,35,37,39,41,-1,-1,-1,-1,-1,-1,-1,-1,-1,-1,-1,-1,-1,-1,-1,-1,-1,-1,-1,-1],"loss_changes":[1.1683356E2,2.0665147E2,9.153198E0,7.2086876E1,2.875885E1,3.4283724E0,3.7310486E0,1.240123E1,3.3920135E0,2.6377419E1,3.0077362E0,2.7591152E0,0E0,1.0401051E0,0E0,1.7537994E0,3.3692985E0,1.1899173E0,2.0392418E0,3.646312E1,5.386734E-1,7.115424E-2,6.148224E-1,0E0,0E0,0E0,0E0,0E0,0E0,0E0,0E0,0E0,0E0,0E0,0E0,0E0,0E0,0E0,0E0,0E0,0E0,0E0,0E0],"parents":[2147483647,0,0,1,1,2,2,3,3,4,4,5,5,6,6,7,7,8,8,9,9,10,10,11,11,13,13,15,15,16,16,17,17,18,18,19,19,20,20,21,21,22,22],"right_children":[2,4,6,8,10,12,14,16,18,20,22,24,-1,26,-1,28,30,32,34,36,38,40,42,-1,-1,-1,-1,-1,-1,-1,-1,-1,-1,-1,-1,-1,-1,-1,-1,-1,-1,-1,-1],"split_conditions":[5E-1,6.300752E-1,4.5431036E-1,8.574545E-1,8.720364E-1,6.8585527E-1,3.8181818E-1,9.061583E-1,5.8571434E-1,8.596059E-1,3.7617925E-1,8.820455E-1,2.4958026E-2,7.579862E-1,5.5582922E-2,3.7336957E-1,4.4816053E-1,9.071429E-1,7.8055704E-1,4E-2,8.659506E-1,8.775E-1,7.380953E-1,-3.2101825E-2,1.3511113E-2,-1.4636341E-2,1.3818865E-2,1.3895817E-3,-4.9208503E-2,-1.3974401E-2,2.5799377E-2,-2.0395523E-2,1.1459817E-2,7.789527E-3,4.7138862E-2,2.9901793E-2,-4.769554E-2,4.7760602E-2,1.7746041E-3,-5.01804E-3,2.8463171E-3,6.473873E-3,5.4085262E-2],"split_indices":[4,9,12,1,12,8,14,14,14,8,8,14,0,8,0,13,9,8,13,7,12,13,9,0,0,0,0,0,0,0,0,0,0,0,0,0,0,0,0,0,0,0,0],"split_type":[0,0,0,0,0,0,0,0,0,0,0,0,0,0,0,0,0,0,0,0,0,0,0,0,0,0,0,0,0,0,0,0,0,0,0,0,0,0,0,0,0,0,0],"sum_hessian":[8.114437E2,4.370544E2,3.7438934E2,1.6384212E2,2.732123E2,9.444401E0,3.6494495E2,1.3299948E2,3.084263E1,8.738519E1,1.858271E2,5.3415785E0,4.1028223E0,2.8523471E0,3.620926E2,1.2095408E2,1.2045403E1,2.424903E0,2.8417727E1,5.105369E1,3.6331505E1,2.1411252E0,1.8368599E2,3.4491642E0,1.8924146E0,1.4263222E0,1.426025E0,1.4620321E0,1.1949205E2,7.9062114E0,4.139191E0,1.2641156E0,1.1607873E0,6.3174486E0,2.2100279E1,2.791233E1,2.3141361E1,3.5283653E1,1.0478494E0,1.05513E0,1.0859952E0,2.141563E0,1.8154442E2],"tree_param":{"num_deleted":"0","num_feature":"15","num_nodes":"43","size_leaf_vector":"0"}},{"base_weights":[6.3491607E-1,-2.553228E-1,9.6760505E-1,-6.3948405E-1,7.5628126E-1,6.534909E-1,1.0870302E0,-9.103257E-1,7.18896E-1,-2.4290675E-1,8.396114E-1,2.7413443E-1,1.0215244E0,6.757121E-2,1.0890032E0,-9.606904E-1,3.3473334E-1,4.5051556E-2,8.111957E-1,-5.0251806E-1,2.549315E-1,1.3731375E-1,9.404105E-1,-1.9381708E-1,9.494296E-1,-1.2510097E-2,1.0453229E0,-9.833633E-1,-1.6878021E-1,-1.2653394E-1,4.8189577E-1,-4.2798302E-1,4.3160957E-1,-2.8346983E-1,4.9387115E-1,1.2125389E-2,9.669642E-1,4.784704E-1,-8.5957396E-1,-3.809464E-2,9.89032E-1,8.4361635E-2,1.0541972E0],"categories":[],"categories_nodes":[],"categories_segments":[],"categories_sizes":[],"default_left":[true,true,true,true,false,true,true,true,false,true,true,true,false,false,false,true,true,false,false,false,false,true,true,true,true,false,true,false,false,false,false,false,false,false,false,false,false,false,false,false,false,false,false],"id":29,"left_children":[1,3,5,7,9,11,13,15,17,19,21,23,25,-1,-1,27,29,31,-1,-1,-1,33,35,37,39,-1,41,-1,-1,-1,-1,-1,-1,-1,-1,-1,-1,-1,-1,-1,-1,-1,-1],"loss_changes":[2.319768E2,8.632054E1,1.776239E1,6.1837418E1,6.158142E0,2.220195E1,4.4491577E-1,1.006884E1,1.6369123E0,1.75574E0,3.4662209E0,2.9385399E1,2.1318054E0,0E0,0E0,1.5217896E0,9.126822E-1,2.5361469E0,0E0,0E0,0E0,2.6722217E0,1.1723518E0,2.7729658E1,1.6634903E0,0E0,2.5582123E-1,0E0,0E0,0E0,0E0,0E0,0E0,0E0,0E0,0E0,0E0,0E0,0E0,0E0,0E0,0E0,0E0],"parents":[2147483647,0,0,1,1,2,2,3,3,4,4,5,5,6,6,7,7,8,8,9,9,10,10,11,11,12,12,15,15,16,16,17,17,21,21,22,22,23,23,24,24,26,26],"right_children":[2,4,6,8,10,12,14,16,18,20,22,24,26,-1,-1,28,30,32,-1,-1,-1,34,36,38,40,-1,42,-1,-1,-1,-1,-1,-1,-1,-1,-1,-1,-1,-1,-1,-1,-1,-1],"split_conditions":[6.262255E-1,5E-1,8.6526823E-1,8.22963E-1,6.841053E-1,5E-1,4.8034695E-1,9.3487394E-1,5.8571434E-1,9.273809E-1,4.5431036E-1,8.711462E-1,3.8181818E-1,3.3785605E-3,5.445016E-2,6.073781E-1,7.528503E-1,7.675916E-1,4.0559784E-2,-2.5125904E-2,1.2746575E-2,6.770834E-1,3.8810438E-1,4E-2,7.037753E-1,-6.255048E-4,5.415243E-1,-4.9168166E-2,-8.439011E-3,-6.3266973E-3,2.4094788E-2,-2.1399152E-2,2.1580478E-2,-1.4173492E-2,2.4693558E-2,6.0626946E-4,4.834821E-2,2.3923522E-2,-4.29787E-2,-1.904732E-3,4.94516E-2,4.218082E-3,5.270986E-2],"split_indices":[9,4,12,0,13,4,1,8,10,0,12,8,10,0,0,9,1,13,0,0,0,8,8,7,1,0,1,0,0,0,0,0,0,0,0,0,0,0,0,0,0,0,0],"split_type":[0,0,0,0,0,0,0,0,0,0,0,0,0,0,0,0,0,0,0,0,0,0,0,0,0,0,0,0,0,0,0,0,0,0,0,0,0,0,0,0,0,0,0],"sum_hessian":[7.740778E2,2.108988E2,5.63179E2,1.5418544E2,5.671336E1,1.6405043E2,3.991286E2,1.2992873E2,2.425672E1,3.6286228E0,5.308474E1,8.50786E1,7.897183E1,1.1114025E0,3.980172E2,1.2597482E2,3.9538963E0,3.8186622E0,2.0438059E1,2.3540423E0,1.2745806E0,8.14529E0,4.493945E1,5.236014E1,3.271846E1,1.8300202E0,7.7141815E1,1.2129331E2,4.681517E0,1.1258615E0,2.8280346E0,1.4762919E0,2.3423703E0,4.206264E0,3.939026E0,1.4522898E0,4.348716E1,2.6752146E1,2.5607996E1,1.2688488E0,3.144961E1,1.1865485E0,7.595527E1],"tree_param":{"num_deleted":"0","num_feature":"15","num_nodes":"43","size_leaf_vector":"0"}},{"base_weights":[6.386956E-1,-7.316541E-2,1.0324451E0,-4.340826E-1,7.5793785E-1,3.7179694E-1,1.0452349E0,-7.5364214E-1,7.969056E-1,2.997467E-1,9.4025755E-1,-2.5866723E-1,6.966282E-1,3.9578858E-1,1.0674677E0,-8.61399E-1,-4.7677465E-2,9.054075E-1,7.585052E-2,-4.992091E-1,5.524992E-1,9.6674854E-1,4.0022624E-3,-5.7942826E-1,3.083981E-1,6.6973066E-1,-5.049893E-1,-8.9146715E-1,9.796113E-3,-3.3887908E-1,6.002111E-1,-8.33101E-2,9.4777584E-1,-3.9800355E-1,4.754784E-1,-6.7791414E-1,1.5817297E-1,-1.9542429E-1,8.115781E-1,7.697032E-1,-1.9841123E-1,-5.6173706E-1,-3.2011975E-2],"categories":[],"categories_nodes":[],"categories_segments":[],"categories_sizes":[],"default_left":[true,true,false,true,false,true,true,true,true,false,true,true,false,true,false,true,true,false,true,true,true,false,false,false,false,true,true,false,false,false,false,false,false,false,false,false,false,false,false,false,false,false,false],"id":30,"left_children":[1,3,5,7,9,11,13,15,17,19,21,23,-1,25,-1,27,29,31,33,35,37,-1,-1,-1,-1,39,41,-1,-1,-1,-1,-1,-1,-1,-1,-1,-1,-1,-1,-1,-1,-1,-1],"loss_changes":[2.1401883E2,8.446916E1,2.206421E0,7.99841E1,5.7268143E0,4.4003115E0,4.803711E0,1.1809006E1,3.0021324E0,7.7714825E0,1.4382324E0,2.6135018E0,0E0,7.5642385E0,0E0,3.6252213E0,5.9614015E0,1.932661E0,3.038737E0,1.7384346E0,5.912657E0,0E0,0E0,0E0,0E0,2.53413E0,1.3557434E-1,0E0,0E0,0E0,0E0,0E0,0E0,0E0,0E0,0E0,0E0,0E0,0E0,0E0,0E0,0E0,0E0],"parents":[2147483647,0,0,1,1,2,2,3,3,4,4,5,5,6,6,7,7,8,8,9,9,10,10,11,11,13,13,15,15,16,16,17,17,18,18,19,19,20,20,25,25,26,26],"right_children":[2,4,6,8,10,12,14,16,18,20,22,24,-1,26,-1,28,30,32,34,36,38,-1,-1,-1,-1,40,42,-1,-1,-1,-1,-1,-1,-1,-1,-1,-1,-1,-1,-1,-1,-1,-1],"split_conditions":[7.7097905E-1,5E-1,5.692105E-1,8.22963E-1,4.6606335E-1,9.033333E-1,5.981549E-1,9.705882E-1,7.570492E-1,6.180371E-1,7.439776E-1,5E-1,3.4831412E-2,2.3076923E-1,5.3373385E-2,7.3030305E-1,7.621974E-1,4.447826E-1,9.04596E-1,6.256486E-1,6.8433726E-1,4.8337426E-2,2.0011312E-4,-2.8971413E-2,1.5419905E-2,6.25E-2,8.775E-1,-4.457336E-2,4.8980565E-4,-1.6943954E-2,3.0010555E-2,-4.165505E-3,4.7388792E-2,-1.9900179E-2,2.3773922E-2,-3.389571E-2,7.908649E-3,-9.771215E-3,4.0578905E-2,3.8485162E-2,-9.920562E-3,-2.8086854E-2,-1.6005988E-3],"split_indices":[9,4,13,0,3,0,1,10,5,10,9,4,0,5,0,9,1,13,0,9,1,0,0,0,0,7,14,0,0,0,0,0,0,0,0,0,0,0,0,0,0,0,0],"split_type":[0,0,0,0,0,0,0,0,0,0,0,0,0,0,0,0,0,0,0,0,0,0,0,0,0,0,0,0,0,0,0,0,0,0,0,0,0,0,0,0,0,0,0],"sum_hessian":[7.5720154E2,2.7111774E2,4.860838E2,1.9069466E2,8.042307E1,1.2087069E1,4.7399673E2,1.5293279E2,3.776186E1,2.6655352E1,5.376772E1,4.456295E0,7.6307735E0,1.8801186E1,4.5519553E2,1.3172562E2,2.120717E1,3.1711647E1,6.050212E0,5.2342677E0,2.1421083E1,5.212988E1,1.637842E0,2.7766643E0,1.679631E0,1.5400205E1,3.4009812E0,1.272185E2,4.5071263E0,1.6276318E1,4.930853E0,1.1045271E0,3.060712E1,2.7773387E0,3.2728734E0,3.9927099E0,1.2415576E0,5.8272214E0,1.5593863E1,1.4318304E1,1.0819013E0,2.1988544E0,1.2021269E0],"tree_param":{"num_deleted":"0","num_feature":"15","num_nodes":"43","size_leaf_vector":"0"}},{"base_weights":[6.2963563E-1,-2.3522791E-1,9.6708184E-1,-6.1589867E-1,7.250565E-1,6.710621E-1,1.0870141E0,-9.082553E-1,6.299419E-1,-1.3135505E-1,8.7950844E-1,3.322795E-1,1.0125602E0,7.688672E-2,1.0890739E0,-9.388101E-1,2.2448921E-1,-2.3988195E-1,8.770773E-1,